tree
version=v4
num_class=1
num_tree_per_iteration=1
label_index=0
max_feature_idx=16
objective=regression
feature_names=model char_count word_count line_count sentence_count unique_words avg_word_length prompt_depth has_code has_json has_markdown has_math has_xml reasoning_prompt creative_prompt tool_usage_prompt rag_prompt
feature_infos=-1:2:1:0:3 [3:597] [0:77] none [1:12] [0:71] [0:10] [0:3] none none none none none [0:1] [0:1] none none
tree_sizes=2106 2181 2169 2181 1935 1931 2187 2179 2108 2184 2188 2119 2117 2192 2129 2114 2108 2024 2023 2033 2113 2037 2277 1790 1707 1711 2113 1793 1716 1720 1799 1796 1710 1785 1723 1642 1711 1723 1715 1789 1559 1648 1874 1878 1800 1802 1878 1726 1883 1650 1794 1900 1646 1642 1657 1399 1396 1233 1394 1235 1397 990 1397 991 1397 1004 1318 1004 1076 997 1238 1013 991 1093 1260 996 1001 1080 1248 1008 999 1092 839 848 841 1083 994 849 844 841 998 1083 1082 1088 755 1010 1012 839 846 821 899 852 1011 829 741 819 898 851 825 1089 825 1093 900 828 824 822 820 1093 826 924 827 1088 823 994 901 1014 826 907 819 1013 901 909 823 824 1096 901 905 744 1012 901 907 822 1097 826 906 822 904 742 1075 824 910 1078 909 842 909 817 1012 824 1072 825 922 825 1077 822 905 917 903 1084 902 831 904 823 903 1085 995 746 1078 1158 824 985 909 1157 904 992 993 833 1161 1078 994 747 991 824 991 746 826 901 990 1343 908 1159 826 905 992 992 1158 744 1182 907 1081 825 901 1157 903 1014 747 990 1084 1080 822 901 905 747 1012 824 905 742 1080 990 830 905 988 985 825 826 745 1076 1159 828 1009 995 1074 1079 898 992 1079 983 934 829 902 992 824 906 823 899 905 1073 745 823 1010 824 905 825 991 988 743 997 988 992 848 993 907 828 827 907 1080 1080 833 829 905 1010 744 991 744 847 986 997 906 743 992 993 828 909 825 1086 743 1007 1099 741 990 740 1079 828 906 1014 745 1165 744 831 1008 1092 1014 832 899 1322 746 830 1011 992 738 907 740 824 983 745 1093 823 852 1080 1160 1245 748 1014 908 831 914 999 1007 828 907 744 746 987 1074 1008 991 989 1015 993 1078 828 1076 1016 825 908 913 1093 907 1092 1091 1077 1072 748 1011 996 744 827 1166 1016 993 1074 988 1067 993 906 990 829 909 908 1013 1096 992 820 993 823 1160 999 910 899 1158 743 909 1323 1264 819 824 1009 1098 824 989 821 1241 991 994 826 997 910 1158 1014 1073 746 746 823 1076 997 908 1261 1094 823 828 989 998 1152 1080 829 829 1167 824 903 1154 1012 1074 1076 825 996 832 823 1016 1095 824 1262 829 911 991 825 1078 826 1160 749 993 826 993 850 1079 831 746 823 1257 1101 1103 1184 1595 915 987 1100 832 1070 997 827 991 832 1082 995 1084 831 1006 745 824 1076 1167 1101 1019 1001 999 826 1516 827 902 831 828 1168 1512 1101 1080 834 749 990 1020 1080 1000 829

Tree=0
num_leaves=25
num_cat=1
split_feature=0 1 1 1 1 1 1 2 1 1 1 1 1 6 1 6 6 1 1 6 1 1 1 5
split_gain=195761 132068 30321.8 27580.8 14304.4 6136.71 5186.34 1645.18 787.959 763.094 684.864 656.738 518.744 195.073 142.315 138.527 109.545 100.504 97.4402 64.922 54.0315 53.7392 45.444 16.6967
threshold=0 146.00000000000003 77.500000000000014 196.50000000000003 111.50000000000001 108.50000000000001 47.500000000000007 11.500000000000002 96.500000000000014 62.500000000000007 123.50000000000001 31.500000000000004 38.500000000000007 5.1450000000000005 90.500000000000014 4.5100000000000007 4.2950000000000008 116.50000000000001 19.000000000000004 4.8650000000000011 39.500000000000007 58.500000000000007 132.50000000000003 15.500000000000002
decision_type=1 2 2 2 2 2 2 2 2 2 2 2 2 2 2 2 2 2 2 2 2 2 2 2
left_child=4 2 6 -3 7 8 11 12 15 16 17 18 -1 -11 -9 -4 -8 -7 -2 -14 -13 -21 -12 -10
right_child=1 3 5 -5 -6 10 9 14 23 13 22 20 19 -15 -16 -17 -18 -19 -20 21 -22 -23 -24 -25
leaf_value=27.386404420155106 25.16033299158368 27.367630288880974 26.026784604486902 29.572506937798437 29.11283299158368 26.314927591011081 25.684849120615937 27.84974475628956 26.150332993967865 25.725094896345581 26.561242082492768 25.380560264310951 27.701814473065159 25.858137869632458 28.017832991583678 25.904572122018461 25.579231296668425 26.449878446400064 25.276486837737526 27.550767774192373 25.450888547139233 27.662832991583677 26.656539888135402 26.210809186317345
leaf_weight=28 25 37 31 23 20 37 31 34 25 84 22 44 27 41 20 92 118 22 65 23 72 20 29 21
leaf_count=28 25 37 31 23 20 37 31 34 25 84 22 44 27 41 20 92 118 22 65 23 72 20 29 21
internal_value=26.2846 25.9586 25.7761 28.2128 27.7695 26.1906 25.5351 27.6904 26.0014 25.6776 26.4812 25.3456 27.5683 25.7687 27.912 25.9354 25.6012 26.3652 25.2442 27.641 25.4242 27.6029 26.6154 26.1779
internal_weight=991 819 759 60 172 279 480 152 169 274 110 206 98 125 54 123 149 59 90 70 116 43 51 46
internal_count=991 819 759 60 172 279 480 152 169 274 110 206 98 125 54 123 149 59 90 70 116 43 51 46
cat_boundaries=0 1
cat_threshold=2
is_linear=0
shrinkage=1


Tree=1
num_leaves=25
num_cat=1
split_feature=0 1 1 1 1 1 1 2 1 1 1 1 1 6 1 6 1 1 13 6 1 1 1 1
split_gain=176674 119191 27365.4 24891.7 12909.7 5538.38 4680.67 1484.78 719.447 688.692 618.09 592.706 468.166 176.053 128.439 98.8642 90.7049 87.9398 69.6362 58.5921 56.2205 48.7634 48.4996 41.0132
threshold=0 146.00000000000003 77.500000000000014 196.50000000000003 111.50000000000001 108.50000000000001 47.500000000000007 11.500000000000002 92.500000000000014 62.500000000000007 123.50000000000001 31.500000000000004 38.500000000000007 5.1450000000000005 90.500000000000014 4.2950000000000008 116.50000000000001 19.000000000000004 1.0000000180025095e-35 4.8650000000000011 97.500000000000014 39.500000000000007 58.500000000000007 132.50000000000003
decision_type=1 2 2 2 2 2 2 2 2 2 2 2 2 2 2 2 2 2 2 2 2 2 2 2
left_child=4 2 6 -3 7 8 11 12 18 15 16 17 -1 -11 -9 -8 -7 -2 -4 -14 -10 -13 -21 -12
right_child=1 3 5 -5 -6 10 9 14 20 13 23 21 19 -15 -16 -17 -18 -19 -20 22 -22 -23 -24 -25
leaf_value=1.0467512266976493 -1.0680166778564455 1.0289157964087821 -0.31574194955103324 3.1235485284224804 2.6868584442138674 0.028848215051599454 -0.56972631023776144 1.4869245388928582 -0.20247612476348875 -0.53149283897309074 0.26284698573025794 -0.8588007233359598 1.3463907524391459 -0.40510202500878312 1.6466083145141603 -0.67006325802560585 0.15705153291875668 -0.95767052136934727 -0.39871091202991771 1.2028963876807173 -0.10062322556262925 -0.79198886023627391 1.3093583822250368 0.35337990070211478
leaf_weight=28 25 37 66 23 20 37 31 34 20 84 22 44 27 41 20 118 22 65 41 23 42 72 20 29
leaf_count=28 25 37 66 23 20 37 31 34 20 84 22 44 27 41 20 118 22 65 41 23 42 72 20 29
internal_value=1.6495e-09 -0.309699 -0.483072 1.83186 1.41066 -0.0892783 -0.711965 1.33555 -0.269005 -0.576582 0.186847 -0.892036 1.21954 -0.490037 1.54607 -0.649188 0.0766528 -0.988322 -0.347534 1.28866 -0.133479 -0.817331 1.25241 0.314326
internal_weight=991 819 759 60 172 279 480 152 169 274 110 206 98 125 54 149 59 90 107 70 62 116 43 51
internal_count=991 819 759 60 172 279 480 152 169 274 110 206 98 125 54 149 59 90 107 70 62 116 43 51
cat_boundaries=0 1
cat_threshold=2
is_linear=0
shrinkage=0.05


Tree=2
num_leaves=25
num_cat=1
split_feature=0 1 1 1 1 1 1 2 1 1 1 1 1 6 1 6 1 1 6 6 1 1 1 1
split_gain=159448 107570 24697.3 22464.7 11651 4998.39 4224.3 1340.01 649.301 621.545 557.826 534.917 422.52 158.888 115.916 89.225 81.8612 79.3655 65.7675 52.8794 50.739 44.009 43.7709 37.0144
threshold=0 146.00000000000003 77.500000000000014 196.50000000000003 111.50000000000001 108.50000000000001 47.500000000000007 11.500000000000002 92.500000000000014 62.500000000000007 123.50000000000001 31.500000000000004 38.500000000000007 5.1450000000000005 90.500000000000014 4.2950000000000008 116.50000000000001 19.000000000000004 4.5100000000000007 4.8650000000000011 97.500000000000014 39.500000000000007 58.500000000000007 132.50000000000003
decision_type=1 2 2 2 2 2 2 2 2 2 2 2 2 2 2 2 2 2 2 2 2 2 2 2
left_child=4 2 6 -3 7 8 11 12 18 15 16 17 -1 -11 -9 -8 -7 -2 -4 -14 -10 -13 -21 -12
right_child=1 3 5 -5 -6 10 9 14 20 13 23 21 19 -15 -16 -17 -18 -19 -20 22 -22 -23 -24 -25
leaf_value=0.99441367387771606 -1.0146157875061037 0.97746999714825611 -0.25725883692502977 2.9673711445020596 2.5525154781341555 0.027405806248252458 -0.54124001226117535 1.4125782686121324 -0.19235231608152392 -0.5049181804770515 0.24970463839444249 -0.8158606984398582 1.2790712568495008 -0.38484693387659585 1.5642779350280762 -0.63656010708566446 0.14919895475560971 -0.90978701077974766 -0.3512361184660211 1.142751581772514 -0.095592063789566362 -0.75238940980699331 1.2438904571533205 0.33571091088755378
leaf_weight=28 25 37 24 23 20 37 31 34 20 84 22 44 27 41 20 118 22 65 83 23 42 72 20 29
leaf_count=28 25 37 24 23 20 37 31 34 20 84 22 44 27 41 20 118 22 65 83 23 42 72 20 29
internal_value=2.2472e-09 -0.294214 -0.458918 1.74027 1.34013 -0.0848144 -0.676366 1.26877 -0.255555 -0.547753 0.177505 -0.847434 1.15857 -0.465535 1.46876 -0.616728 0.0728202 -0.938906 -0.330157 1.22423 -0.126805 -0.776465 1.18979 0.29861
internal_weight=991 819 759 60 172 279 480 152 169 274 110 206 98 125 54 149 59 90 107 70 62 116 43 51
internal_count=991 819 759 60 172 279 480 152 169 274 110 206 98 125 54 149 59 90 107 70 62 116 43 51
cat_boundaries=0 1
cat_threshold=2
is_linear=0
shrinkage=0.05


Tree=3
num_leaves=25
num_cat=1
split_feature=0 1 1 1 1 1 1 2 1 1 1 1 1 6 2 6 1 1 13 6 1 1 1 1
split_gain=143902 97082.1 22289.3 20274.4 10515 4511.04 3812.43 1209.36 585.994 560.944 503.438 482.763 381.324 143.397 109.73 80.5255 74.4643 71.8358 62.1976 47.7236 45.7919 39.7182 39.5032 34.3406
threshold=0 146.00000000000003 77.500000000000014 196.50000000000003 111.50000000000001 108.50000000000001 47.500000000000007 11.500000000000002 92.500000000000014 62.500000000000007 123.50000000000001 31.500000000000004 38.500000000000007 5.1450000000000005 15.500000000000002 4.2950000000000008 115.50000000000001 17.500000000000004 1.0000000180025095e-35 4.8650000000000011 97.500000000000014 39.500000000000007 58.500000000000007 133.50000000000003
decision_type=1 2 2 2 2 2 2 2 2 2 2 2 2 2 2 2 2 2 2 2 2 2 2 2
left_child=4 2 6 -3 7 8 11 12 18 15 16 17 -1 -11 -9 -8 -7 -2 -4 -14 -10 -13 -21 -12
right_child=1 3 5 -5 -6 10 9 14 20 13 23 21 19 -15 -16 -17 -18 -19 -20 22 -22 -23 -24 -25
leaf_value=0.94469300167901182 -0.97293260665166947 0.92859650270358951 -0.28360335772687739 2.8190025847891107 2.4248896598815919 0.019319707877708203 -0.51417802303068105 1.3406598904553582 -0.1827347016334534 -0.47967228236652559 0.24935248494148254 -0.77506768053228203 1.2151176664564345 -0.36560455880514009 1.4882560873031618 -0.60473208508249066 0.13246237543913036 -0.86731716238934065 -0.36201579599845701 1.0856139970862348 -0.090812459663443632 -0.714769956138399 1.1816959190368654 0.33271846771240238
leaf_weight=28 21 37 66 23 20 33 31 34 20 84 30 44 27 41 20 118 26 69 41 23 42 72 20 21
leaf_count=28 21 37 66 23 20 33 31 34 20 84 30 44 27 41 20 118 26 69 41 23 42 72 20 21
internal_value=3.44918e-09 -0.279503 -0.435972 1.65325 1.27312 -0.0805737 -0.642548 1.20533 -0.242777 -0.520366 0.168629 -0.805063 1.10064 -0.442258 1.39533 -0.585892 0.0691792 -0.891961 -0.313649 1.16302 -0.120465 -0.737642 1.1303 0.28368
internal_weight=991 819 759 60 172 279 480 152 169 274 110 206 98 125 54 149 59 90 107 70 62 116 43 51
internal_count=991 819 759 60 172 279 480 152 169 274 110 206 98 125 54 149 59 90 107 70 62 116 43 51
cat_boundaries=0 1
cat_threshold=2
is_linear=0
shrinkage=0.05


Tree=4
num_leaves=22
num_cat=1
split_feature=0 1 1 1 1 1 1 1 2 1 1 1 2 1 1 1 1 1 6 5 1
split_gain=129872 87616.6 20118.9 18297.7 9489.83 5531.23 1570.2 1515.45 1091.45 435.693 344.145 193.671 172.45 158.543 99.0803 85.9362 65.3888 58.4152 43.5314 37.8791 17.4576
threshold=0 146.00000000000003 91.500000000000014 196.50000000000003 111.50000000000001 47.500000000000007 115.50000000000001 69.500000000000014 11.500000000000002 31.500000000000004 38.500000000000007 96.500000000000014 8.5000000000000018 127.50000000000001 90.500000000000014 110.50000000000001 19.000000000000004 77.500000000000014 4.955000000000001 6.5000000000000009 133.50000000000003
decision_type=1 2 2 2 2 2 2 2 2 2 2 2 2 2 2 2 2 2 2 2 2
left_child=4 2 5 -3 8 9 11 12 10 16 -1 -4 -7 -8 -10 -13 -2 -9 -12 -11 -15
right_child=1 3 6 -5 -6 7 13 17 14 19 18 15 -14 20 -16 -17 -18 -19 -20 -21 -22
leaf_value=0.89745829275676192 -0.91608334541320802 0.88216667594136422 -0.2099596356803721 2.6780524709950324 2.30364520072937 -0.6113072941700618 0.13814301960396044 -0.36483452703271596 1.2736141092637006 -0.73476693133513138 1.147833913564682 -0.076667647009546105 -0.50398632806890153 0.25302813053131107 1.4138651418685915 0.036724935596187912 -0.82093174420870274 -0.30116549860132807 1.0686834536100689 -0.67675411420709952 0.31608254427001592
leaf_weight=28 25 37 22 23 20 48 33 56 34 48 32 55 170 23 20 24 65 101 38 68 21
leaf_count=28 25 37 22 23 20 48 33 56 34 48 32 55 170 23 20 24 65 101 38 68 21
internal_value=8.04452e-10 -0.265528 -0.414174 1.57059 1.20946 -0.55666 0.0509082 -0.442317 1.14506 -0.764809 1.04561 -0.0787568 -0.527617 0.220988 1.32556 -0.0422193 -0.847363 -0.323875 1.10487 -0.700759 0.283122
internal_weight=991 819 759 60 172 581 178 375 152 206 98 101 218 77 54 79 90 157 70 116 44
internal_count=991 819 759 60 172 581 178 375 152 206 98 101 218 77 54 79 90 157 70 116 44
cat_boundaries=0 1
cat_threshold=2
is_linear=0
shrinkage=0.05


Tree=5
num_leaves=22
num_cat=1
split_feature=0 1 1 1 1 1 1 1 2 1 5 1 1 1 2 1 1 6 1 4 1
split_gain=117209 79074 18157.3 16513.6 8564.57 4991.93 1419.8 1367.7 985.032 393.213 314.61 196.951 163.815 116.343 93.9134 82.3575 59.9331 57.699 34.2951 29.6658 15.7555
threshold=0 146.00000000000003 91.500000000000014 196.50000000000003 111.50000000000001 47.500000000000007 116.50000000000001 69.500000000000014 11.500000000000002 31.500000000000004 6.5000000000000009 108.50000000000001 59.500000000000007 127.50000000000001 15.500000000000002 96.500000000000014 23.500000000000004 5.745000000000001 39.500000000000007 1.5000000000000002 133.50000000000003
decision_type=1 2 2 2 2 2 2 2 2 2 2 2 2 2 2 2 2 2 2 2 2
left_child=4 2 5 -3 8 9 11 12 10 16 -1 15 -7 -8 -10 -4 -2 -9 -11 -12 -15
right_child=1 3 6 -5 -6 7 13 17 14 18 19 -13 -14 20 -16 -17 -18 -19 -20 -21 -22
leaf_value=0.87041475071626562 -0.84960008714257218 0.83805833104494454 -0.19946165111931891 2.5441498030786929 2.1884629058837892 -0.541879181204171 0.13997037945122556 -0.31991796480284801 1.2087087210486918 -0.70049886053258725 1.0200242928096228 0.02345259278207212 -0.4550138969047397 0.24037672644076138 1.3452538204193116 -0.081840422555156389 -0.76767167947730242 -0.23259552608836784 -0.6444685863124 1.0886453919940526 0.30027842464901155
leaf_weight=34 41 37 22 23 20 116 29 135 34 44 28 37 102 23 20 46 49 22 72 36 21
leaf_count=34 41 37 22 23 20 116 29 135 34 44 28 37 102 23 20 46 49 22 72 36 21
internal_value=1.26307e-10 -0.252251 -0.393465 1.49206 1.14899 -0.528827 0.0483628 -0.420201 1.08781 -0.726569 0.993327 -0.0693816 -0.501236 0.217721 1.25928 -0.119894 -0.804995 -0.307682 -0.665721 1.05862 0.268966
internal_weight=991 819 759 60 172 581 178 375 152 206 98 105 218 73 54 68 90 157 116 64 44
internal_count=991 819 759 60 172 581 178 375 152 206 98 105 218 73 54 68 90 157 116 64 44
cat_boundaries=0 1
cat_threshold=2
is_linear=0
shrinkage=0.05


Tree=6
num_leaves=25
num_cat=1
split_feature=0 1 1 1 1 1 1 2 1 1 1 1 1 6 6 2 6 1 6 2 1 5 1 5
split_gain=105781 71364.3 16423.6 14903.6 7729.52 3316.98 2794.04 888.991 529.649 429.072 354.875 289.015 288.152 134.231 109.297 84.7567 69.3019 55.6323 38.2996 33.9453 33.8542 32.7448 25.0904 16.1763
threshold=0 146.00000000000003 77.500000000000014 196.50000000000003 111.50000000000001 110.50000000000001 47.500000000000007 11.500000000000002 96.500000000000014 62.500000000000007 31.500000000000004 38.500000000000007 123.50000000000001 5.1450000000000005 4.5100000000000007 15.500000000000002 4.2950000000000008 17.500000000000004 4.8650000000000011 21.500000000000004 58.500000000000007 6.5000000000000009 132.50000000000003 15.500000000000002
decision_type=1 2 2 2 2 2 2 2 2 2 2 2 2 2 2 2 2 2 2 2 2 2 2 2
left_child=4 2 6 -3 7 8 10 11 14 16 17 -1 19 -11 -4 -9 -8 -2 -13 -7 -20 -12 -14 -10
right_child=1 3 5 -5 -6 12 9 15 23 13 21 18 22 -15 -16 -17 -18 -19 20 -21 -22 -23 -24 -25
leaf_value=0.80789556843893873 -0.8360018503098261 0.79615541672384416 -0.17506277830370012 2.4169423673463903 2.0790397977828983 0.036831304320582639 -0.43729669047940167 1.1482733165516572 -0.098241558097876047 -0.41440321774709798 -0.66405421694119771 1.0446397322195549 0.20350662253119728 -0.30404114665054699 -0.28361853030712708 1.2779911041259766 -0.52130339468939835 -0.74305798489114516 0.92728891165360161 0.11949205035748689 1.0162359666824341 -0.61011621671564442 0.27431721194037079 -0.043928439658263638
leaf_weight=28 21 37 31 23 20 27 31 34 26 84 48 27 22 41 92 20 118 69 23 23 20 68 29 29
leaf_count=28 21 37 31 23 20 27 31 34 26 84 48 27 22 41 92 20 118 69 23 23 20 68 29 29
internal_value=-5.53343e-10 -0.239639 -0.373792 1.41746 1.09154 -0.0687202 -0.551115 1.03342 -0.198585 -0.446517 -0.690241 0.94366 0.16015 -0.378204 -0.256259 1.19632 -0.503825 -0.764745 0.997966 0.0748552 0.96866 -0.632435 0.243771 -0.0696037
internal_weight=991 819 759 60 172 279 480 152 178 274 206 98 101 125 123 54 149 90 70 50 43 116 51 55
internal_count=991 819 759 60 172 279 480 152 178 274 206 98 101 125 123 54 149 90 70 50 43 116 51 55
cat_boundaries=0 1
cat_threshold=2
is_linear=0
shrinkage=0.05


Tree=7
num_leaves=25
num_cat=1
split_feature=0 1 1 1 1 1 5 2 1 1 1 2 1 1 1 6 1 5 1 4 1 5 1 1
split_gain=95467.6 64406.3 14827.2 13450.5 6975.9 3903.14 1742.17 802.315 563.558 430.931 335.877 269.105 154.195 129.002 80.3094 59.2077 51.1249 37.2836 25.596 37.6447 23.9224 22.8267 22.8089 15.4098
threshold=0 146.00000000000003 69.500000000000014 196.50000000000003 111.50000000000001 108.50000000000001 6.5000000000000009 11.500000000000002 92.500000000000014 47.500000000000007 123.50000000000001 5.5000000000000009 26.500000000000004 62.500000000000007 90.500000000000014 5.745000000000001 116.50000000000001 15.500000000000002 45.500000000000007 1.5000000000000002 17.500000000000004 5.5000000000000009 133.50000000000003 43.500000000000007
decision_type=1 2 2 2 2 2 2 2 2 2 2 2 2 2 2 2 2 2 2 2 2 2 2 2
left_child=4 2 6 -3 7 8 12 11 15 23 16 -1 20 -11 -9 -4 -7 -10 -13 -20 -2 -14 -12 -8
right_child=1 3 5 -5 -6 10 9 14 17 13 22 18 21 -15 -16 -17 -18 -19 19 -21 -22 -23 -24 -25
leaf_value=0.7509890417257945 -0.79420173395247695 0.7563476570151948 -0.28683052991117747 2.2960952064265374 1.9750878143310548 0.020488672683367862 -0.60353483080863957 1.0897349133211023 -0.13156216170106616 -0.46750574612963025 0.20360688289006551 0.89534330844879162 -0.67486348501065885 -0.38251497817761976 1.2160035991668703 -0.20026899653932323 0.11673854047601873 -0.053361785963729584 0.92133042131151477 1.0048816790947548 -0.72800959807175858 -0.6240622316797575 0.27154862901994159 -0.55656847338522641
leaf_weight=24 21 37 140 23 20 37 40 34 35 138 30 20 41 66 20 23 22 27 28 26 39 48 21 31
leaf_count=24 21 37 140 23 20 37 40 34 35 138 30 20 41 66 20 23 22 27 28 26 39 48 21 31
internal_value=3.1727e-10 -0.227657 -0.355102 1.34658 1.03696 -0.10648 -0.551537 0.981749 -0.225813 -0.476934 0.13761 0.896477 -0.689228 -0.440009 1.1365 -0.274616 0.0563785 -0.0975072 0.943663 0.961559 -0.751177 -0.647465 0.231583 -0.583028
internal_weight=991 819 759 60 172 335 424 152 225 275 110 98 149 204 54 163 59 62 74 54 60 89 51 71
internal_count=991 819 759 60 172 335 424 152 225 275 110 98 149 204 54 163 59 62 74 54 60 89 51 71
cat_boundaries=0 1
cat_threshold=2
is_linear=0
shrinkage=0.05


Tree=8
num_leaves=24
num_cat=1
split_feature=0 1 1 1 1 1 1 1 1 1 1 1 1 6 6 6 6 2 1 2 2 1 6
split_gain=86159.5 58126.7 13410.5 12139 6295.75 2698.09 2269.27 725.121 432.245 343.779 292.91 258.771 233.429 120.228 97.1507 69.3256 61.2728 55.6959 45.444 29.4739 28.3277 21.0182 17.1424
threshold=0 146.00000000000003 77.500000000000014 196.50000000000003 111.50000000000001 110.50000000000001 47.500000000000007 69.500000000000014 96.500000000000014 62.500000000000007 31.500000000000004 38.500000000000007 123.50000000000001 5.1450000000000005 4.5100000000000007 4.955000000000001 4.2950000000000008 15.500000000000002 23.500000000000004 21.500000000000004 7.5000000000000009 132.50000000000003 5.0250000000000012
decision_type=1 2 2 2 2 2 2 2 2 2 2 2 2 2 2 2 2 2 2 2 2 2 2
left_child=4 2 6 -3 7 8 10 11 14 16 18 -1 19 -11 -4 -13 -8 -9 -2 -7 -12 -14 -10
right_child=1 3 5 -5 -6 12 9 17 22 13 20 15 21 -15 -16 -17 -18 -19 -20 -21 -22 -23 -24
leaf_value=0.72763134411403119 -0.72949127976487327 0.71853027287367233 -0.15435179193173687 2.1812904725904052 1.8763333559036255 0.03253937871367843 -0.39205654590360584 1.0467264010988433 -0.085074186325073242 -0.37642736520086018 -0.58769169954153211 0.95194668525304549 0.18315095522186975 -0.27198035891463118 -0.25669779304576962 0.85572703944312212 -0.47104712421611206 1.1551854133605957 -0.65815020969935834 0.10956366748913476 -0.53504567271784731 0.24796103806845071 -0.028094732761383058
leaf_weight=28 41 37 31 23 20 27 31 29 33 84 78 39 22 41 92 36 118 20 49 23 38 29 22
leaf_count=28 41 37 31 23 20 27 31 29 33 84 78 39 22 41 92 36 118 20 49 23 38 29 22
internal_value=-1.67657e-10 -0.216274 -0.337347 1.27926 0.985117 -0.0616771 -0.49758 0.932661 -0.178801 -0.403315 -0.622962 0.857338 0.14474 -0.342169 -0.230903 0.905761 -0.454613 1.091 -0.69065 0.0679706 -0.570446 0.220004 -0.0622824
internal_weight=991 819 759 60 172 279 480 152 178 274 206 103 101 125 123 75 149 49 90 50 116 51 55
internal_count=991 819 759 60 172 279 480 152 178 274 206 103 101 125 123 75 149 49 90 50 116 51 55
cat_boundaries=0 1
cat_threshold=2
is_linear=0
shrinkage=0.05


Tree=9
num_leaves=25
num_cat=1
split_feature=0 1 1 1 1 1 5 2 1 1 1 2 1 1 1 6 1 5 1 4 5 1 1 1
split_gain=77759 52459.3 12124.1 10955.5 5681.91 3171.9 1433.02 656.686 457.269 347.736 272.363 228.141 122.812 99.8167 67.7797 52.4479 43.3671 33.5282 20.5929 33.5234 20.5362 20.4132 19.0971 13.5191
threshold=0 146.00000000000003 69.500000000000014 196.50000000000003 111.50000000000001 108.50000000000001 6.5000000000000009 11.500000000000002 92.500000000000014 47.500000000000007 123.50000000000001 5.5000000000000009 26.500000000000004 62.500000000000007 90.500000000000014 5.745000000000001 116.50000000000001 15.500000000000002 45.500000000000007 1.5000000000000002 5.5000000000000009 17.500000000000004 133.50000000000003 43.500000000000007
decision_type=1 2 2 2 2 2 2 2 2 2 2 2 2 2 2 2 2 2 2 2 2 2 2 2
left_child=4 2 6 -3 7 8 12 11 15 23 16 -1 21 -11 -9 -4 -7 -10 -13 -20 -14 -2 -12 -8
right_child=1 3 5 -5 -6 10 9 14 17 13 22 18 20 -15 -16 -17 -18 -19 19 -21 -22 -23 -24 -25
leaf_value=0.67492485543092096 -0.71801708085196358 0.68260374584713501 -0.25869175989712989 2.072225919365883 1.7825167322158812 0.018176926350271381 -0.54495960295200352 0.98306989108814913 -0.11995478297982898 -0.4214653139529021 0.18340485334396361 0.80898809432983398 -0.61170284457323032 -0.34670428073767462 1.0990710353851318 -0.17722131674704344 0.10682387189431625 -0.045797258063598918 0.83041826997484491 0.90926345678476184 -0.56351773291826246 -0.65687235318697423 0.2455731436432827 -0.50096878928522914
leaf_weight=24 21 37 140 23 20 37 40 34 35 138 30 20 41 66 20 23 22 27 28 26 48 39 21 31
leaf_count=24 21 37 140 23 20 37 40 34 35 138 30 20 41 66 20 23 22 27 28 26 48 39 21 31
internal_value=-1.45892e-09 -0.20546 -0.32048 1.21529 0.935861 -0.0956598 -0.498109 0.886028 -0.203235 -0.430448 0.12438 0.808883 -0.622987 -0.397278 1.02603 -0.247196 0.0512317 -0.0876604 0.852329 0.868381 -0.585715 -0.678273 0.209004 -0.525752
internal_weight=991 819 759 60 172 335 424 152 225 275 110 98 149 204 54 163 59 62 74 54 89 60 51 71
internal_count=991 819 759 60 172 335 424 152 225 275 110 98 149 204 54 163 59 62 74 54 89 60 51 71
cat_boundaries=0 1
cat_threshold=2
is_linear=0
shrinkage=0.05


Tree=10
num_leaves=25
num_cat=1
split_feature=0 1 1 1 1 1 1 1 1 1 1 1 1 6 6 6 6 2 1 1 1 6 6 1
split_gain=70177.5 47344.5 10949.7 9887.33 5127.92 2194.74 1842.45 597.637 352.867 275.421 241.795 219.54 191.929 107.694 86.4335 65.0371 54.2079 46.6434 37.3777 34.8492 24.7621 24.6015 16.8458 9.28255
threshold=0 146.00000000000003 77.500000000000014 196.50000000000003 111.50000000000001 110.50000000000001 47.500000000000007 69.500000000000014 96.500000000000014 62.500000000000007 31.500000000000004 31.500000000000004 127.50000000000001 5.1450000000000005 4.5100000000000007 4.955000000000001 4.2950000000000008 15.500000000000002 19.000000000000004 116.50000000000001 39.500000000000007 4.370000000000001 5.0250000000000012 133.50000000000003
decision_type=1 2 2 2 2 2 2 2 2 2 2 2 2 2 2 2 2 2 2 2 2 2 2 2
left_child=4 2 6 -3 7 8 10 11 14 16 18 -1 19 -11 -4 21 -8 -9 -2 -7 -12 -13 -10 -14
right_child=1 3 5 -5 -6 12 9 17 22 13 20 15 23 -15 -16 -17 -18 -19 -20 -21 -22 -23 -24 -25
leaf_value=0.62463703036308293 -0.67567579460144045 0.64847356467633643 -0.13586404131304833 1.968614653012027 1.6933909082412719 0.030465299955436162 -0.35138046818394819 0.94495828891622624 -0.07831024821057464 -0.34199787945974447 -0.54405650821599094 0.81345945054834545 0.18731580609860629 -0.24314490585792356 -0.23239993783442872 0.76216566501519623 -0.42567771572177693 1.0442125988006592 -0.60373572129469655 0.10866875031898762 -0.49644626412126752 0.88823405612598771 -0.021825748682022098 0.23329448721238544
leaf_weight=20 25 37 31 23 20 28 31 29 33 84 44 22 23 41 92 39 118 20 65 29 72 22 22 21
leaf_count=20 25 37 31 23 20 28 31 29 33 84 44 22 23 41 92 39 118 20 65 29 72 22 22 21
internal_value=1.7322e-09 -0.195187 -0.304456 1.15453 0.889068 -0.0553588 -0.449243 0.841727 -0.160994 -0.364305 -0.56222 0.773344 0.130811 -0.309574 -0.20807 0.809177 -0.41022 0.98547 -0.623719 0.070253 -0.514505 0.850847 -0.0557164 0.20926
internal_weight=991 819 759 60 172 279 480 152 178 274 206 103 101 125 123 83 149 49 90 57 116 44 55 44
internal_count=991 819 759 60 172 279 480 152 178 274 206 103 101 125 123 83 149 49 90 57 116 44 55 44
cat_boundaries=0 1
cat_threshold=2
is_linear=0
shrinkage=0.05


Tree=11
num_leaves=24
num_cat=1
split_feature=0 1 1 1 2 1 5 2 1 1 2 1 1 6 1 5 13 5 1 5 1 4 1
split_gain=63335.2 42728.4 9915.46 8923.31 4637.68 2577.56 1180.59 439.193 414.128 281.185 191.976 153.791 98.2794 76.7829 63.8494 45.7081 45.3552 38.1122 30.542 18.3128 17.9781 30.1926 16.4322
threshold=0 146.00000000000003 69.500000000000014 196.50000000000003 17.500000000000004 100.50000000000001 6.5000000000000009 11.500000000000002 116.50000000000001 53.500000000000007 5.5000000000000009 91.500000000000014 26.500000000000004 6.1150000000000011 127.50000000000001 8.5000000000000018 1.0000000180025095e-35 17.500000000000004 80.500000000000014 5.5000000000000009 45.500000000000007 1.5000000000000002 17.500000000000004
decision_type=1 2 2 2 2 2 2 2 2 2 2 2 2 2 2 2 2 2 2 2 2 2 2
left_child=4 2 6 -3 7 11 12 10 17 15 -1 16 22 -11 -10 -8 -4 -7 -9 -14 -12 -22 -2
right_child=1 3 5 -5 -6 8 9 18 14 13 20 -13 19 -15 -16 -17 -18 -19 -20 -21 21 -23 -24
leaf_value=0.60690427323182428 -0.64833247548057926 0.61604989154918777 -0.20450152701139448 1.8701838866524074 1.5545432339543881 -0.042625526227056981 -0.47740540925194241 0.8680172443389893 0.10323531298801816 -0.33649084631601972 0.72914525508880623 -0.1138528623068944 -0.55441545393408809 -0.43857188565390448 0.19879716756668958 -0.40773029393619958 -0.26038661897182463 0.035134644519824253 0.94577807358333055 -0.50891349911689765 0.74861201047897341 0.82343780260819666 -0.59347302241203115
leaf_weight=24 21 37 100 23 23 40 68 23 29 150 20 39 41 21 44 36 57 26 28 48 28 26 39
leaf_count=24 21 37 100 23 23 40 68 23 29 150 20 39 41 21 44 36 57 26 28 48 28 26 39
internal_value=4.26284e-10 -0.185428 -0.289233 1.0968 0.844614 -0.0859196 -0.44987 0.791713 0.0787725 -0.388456 0.729787 -0.202717 -0.563217 -0.349027 0.160834 -0.453287 -0.224791 -0.0119927 0.910709 -0.529875 0.769641 0.784639 -0.612674
internal_weight=991 819 759 60 172 335 424 149 139 275 98 196 149 171 73 104 157 66 51 89 74 54 60
internal_count=991 819 759 60 172 335 424 149 139 275 98 196 149 171 73 104 157 66 51 89 74 54 60
cat_boundaries=0 1
cat_threshold=2
is_linear=0
shrinkage=0.05


Tree=12
num_leaves=24
num_cat=1
split_feature=0 1 1 1 1 1 5 2 1 1 5 1 1 6 13 5 1 1 6 1 5 1 1
split_gain=57160 38562.4 8948.7 8053.29 4228.92 2334.99 1065.48 484.86 332.933 255.114 222.122 199.248 88.6972 79.8715 47.0479 28.3801 28.2375 26.3002 39.3891 23.3954 16.5273 14.8301 11.2921
threshold=0 146.00000000000003 69.500000000000014 196.50000000000003 111.50000000000001 108.50000000000001 6.5000000000000009 13.500000000000002 92.500000000000014 47.500000000000007 6.5000000000000009 121.50000000000001 26.500000000000004 5.4650000000000007 1.0000000180025095e-35 15.500000000000002 113.50000000000001 64.500000000000014 4.7750000000000012 131.50000000000003 5.5000000000000009 17.500000000000004 43.500000000000007
decision_type=1 2 2 2 2 2 2 2 2 2 2 2 2 2 2 2 2 2 2 2 2 2 2
left_child=4 2 6 -3 7 8 12 10 14 22 -1 16 21 -11 -4 -10 -7 18 -12 -13 -14 -2 -8
right_child=1 3 5 -5 -6 11 9 -9 15 13 17 19 20 -15 -16 -17 -18 -19 -20 -21 -22 -23 -24
leaf_value=0.6026198317022885 -0.61591584625698281 0.58524739631527189 -0.1906597543471292 1.7766747246617858 1.5325160670280458 -0.0014402420948381011 -0.46821899533271794 0.92237531117030569 -0.1050162284076214 -0.35892175686986827 0.77826861098960598 0.13600493832068011 -0.52669469263495472 -0.28713280741985026 -0.2461694438315806 -0.036789131054171809 0.070729742989395605 0.7948870676535148 0.69434751148881579 0.20298505192622543 -0.4834678123394649 -0.56379937514280665 -0.42801443146121115
leaf_weight=34 21 37 102 23 20 23 40 35 35 152 27 22 41 52 61 27 33 27 29 32 48 39 31
leaf_count=34 21 37 102 23 20 23 40 35 35 152 27 22 41 52 61 27 33 27 29 32 48 39 31
internal_value=-3.11631e-10 -0.176157 -0.274771 1.04196 0.802384 -0.0816236 -0.427376 0.759102 -0.173922 -0.369034 0.710259 0.107169 -0.535056 -0.340623 -0.211433 -0.0753044 0.0410885 0.754353 0.734809 0.175697 -0.503381 -0.58204 -0.450665
internal_weight=991 819 759 60 172 335 424 152 225 275 117 110 149 204 163 62 56 83 56 54 89 60 71
internal_count=991 819 759 60 172 335 424 152 225 275 117 110 149 204 163 62 56 83 56 54 89 60 71
cat_boundaries=0 1
cat_threshold=2
is_linear=0
shrinkage=0.05


Tree=13
num_leaves=25
num_cat=1
split_feature=0 1 1 1 1 1 1 1 1 1 1 1 1 6 6 6 6 2 1 1 6 1 6 1
split_gain=51586.9 34802.6 8091.74 7268.1 3816.6 1610.72 1347.66 437.859 258.39 210.556 181.87 170.131 140.124 97.28 74.0749 52.4133 46.9597 33.2304 27.4092 25.0419 23.7827 19.2095 17.4299 7.72067
threshold=0 146.00000000000003 77.500000000000014 196.50000000000003 111.50000000000001 110.50000000000001 47.500000000000007 69.500000000000014 96.500000000000014 62.500000000000007 31.500000000000004 31.500000000000004 127.50000000000001 5.1450000000000005 4.5100000000000007 4.955000000000001 4.2950000000000008 14.500000000000002 23.500000000000004 116.50000000000001 4.370000000000001 39.500000000000007 5.0250000000000012 133.50000000000003
decision_type=1 2 2 2 2 2 2 2 2 2 2 2 2 2 2 2 2 2 2 2 2 2 2 2
left_child=4 2 6 -3 7 8 10 11 14 16 18 -1 19 -11 -4 20 -8 -9 -2 -7 -13 -12 -10 -14
right_child=1 3 5 -5 -6 12 9 17 22 13 21 15 23 -15 -16 -17 -18 -19 -20 -21 -22 -23 -24 -25
leaf_value=0.53170653462409978 -0.56562384047159342 0.55598502330280641 -0.11083205210105065 1.6878410056881283 1.4558902502059938 0.027119354797261103 -0.29823649814051967 0.80215913653373727 -0.070286743427542125 -0.29581768597875324 -0.46676855412396523 0.69480634819377551 0.15960821068805198 -0.20186586438155754 -0.20020032117710165 0.65195554708823178 -0.36738834845817697 0.88452749633789063 -0.51021876724398874 0.093411626075876178 0.76832606142217463 -0.4248347136709425 -0.012831434133377943 0.2015406607162385
leaf_weight=20 41 37 31 23 20 28 31 24 33 84 44 22 23 41 92 39 118 25 49 29 22 72 22 21
leaf_count=20 41 37 31 23 20 28 31 24 33 84 44 22 23 41 92 39 118 25 49 29 22 72 22 21
internal_value=-1.56943e-10 -0.167349 -0.261033 0.989863 0.762264 -0.0468973 -0.385499 0.721147 -0.137393 -0.312855 -0.482122 0.662615 0.11259 -0.265001 -0.177677 0.694159 -0.353001 0.844184 -0.535459 0.060847 0.731566 -0.440741 -0.0473046 0.179621
internal_weight=991 819 759 60 172 279 480 152 178 274 206 103 101 125 123 83 149 49 90 57 44 116 55 44
internal_count=991 819 759 60 172 279 480 152 178 274 206 103 101 125 123 83 149 49 90 57 44 116 55 44
cat_boundaries=0 1
cat_threshold=2
is_linear=0
shrinkage=0.05


Tree=14
num_leaves=24
num_cat=1
split_feature=0 1 1 1 2 1 5 5 1 1 1 1 6 1 6 6 5 1 5 13 5 1 13
split_gain=46557.2 31409.3 7318.24 6559.46 3467.65 1897.51 877.876 323.129 269.565 210.946 172.129 163.184 74.4839 70.2305 45.1977 36.273 35.0049 27.6066 25.6855 17.8444 14.7842 12.6644 9.26883
threshold=0 146.00000000000003 69.500000000000014 196.50000000000003 17.500000000000004 108.50000000000001 6.5000000000000009 6.5000000000000009 92.500000000000014 53.500000000000007 72.500000000000014 119.50000000000001 6.1150000000000011 26.500000000000004 5.745000000000001 4.8650000000000011 8.5000000000000018 131.50000000000003 15.500000000000002 1.0000000180025095e-35 5.5000000000000009 17.500000000000004 1.0000000180025095e-35
decision_type=1 2 2 2 2 2 2 2 2 2 2 2 2 2 2 2 2 2 2 2 2 2 2
left_child=4 2 6 -3 7 8 13 -1 14 16 15 19 -11 21 -4 -9 -8 -13 -10 -7 -15 -2 -12
right_child=1 3 5 -5 -6 11 9 10 18 12 22 17 -14 20 -16 -17 -18 -19 -20 -21 -22 -23 -24
leaf_value=0.54263050205567309 -0.55683886891319634 0.52818576923093274 -0.20094224956285742 1.6034489403438308 1.3376696959785794 0.063769556794847762 -0.41028652752147005 0.70571390910026355 -0.096045853798942912 -0.28652883863449097 0.82462571144104013 0.11612490045613255 -0.38707004274640766 -0.47759076385963256 -0.12531222241080328 0.63559882708958215 -0.34931239419513282 0.18347947821021082 -0.031138533657347717 0.002797615927244936 -0.4367069507638614 -0.50867784206683819 0.77706484340486082
leaf_weight=34 21 37 140 23 23 21 68 39 35 150 20 29 21 41 23 35 36 32 27 28 48 39 21
leaf_count=34 21 37 140 23 23 21 68 39 35 150 20 29 21 41 23 35 36 32 27 28 48 39 21
internal_value=7.2739e-10 -0.158981 -0.247981 0.94037 0.724151 -0.0733134 -0.385985 0.678048 -0.156518 -0.333027 0.718084 0.0968769 -0.298876 -0.483726 -0.190271 0.672551 -0.38918 0.151458 -0.0677798 0.0289284 -0.455541 -0.525534 0.800265
internal_weight=991 819 759 60 172 335 424 149 225 275 115 110 171 149 163 74 104 61 62 49 89 60 41
internal_count=991 819 759 60 172 335 424 149 225 275 115 110 171 149 163 74 104 61 62 49 89 60 41
cat_boundaries=0 1
cat_threshold=2
is_linear=0
shrinkage=0.05


Tree=15
num_leaves=24
num_cat=1
split_feature=0 1 1 1 1 1 1 2 1 1 1 1 1 6 6 6 2 6 1 1 6 2 1
split_gain=42017.8 28346.9 6607.05 5919.91 3147.73 1310.24 1095.89 356.4 211.006 174.558 169.784 149.685 114.627 89.3061 66.1291 40.4193 23.7333 23.3787 38.7621 20.669 16.971 16.6161 6.36678
threshold=0 146.00000000000003 77.500000000000014 196.50000000000003 111.50000000000001 110.50000000000001 47.500000000000007 13.500000000000002 96.500000000000014 62.500000000000007 38.500000000000007 31.500000000000004 127.50000000000001 5.1450000000000005 4.5100000000000007 4.2950000000000008 4.5000000000000009 4.7750000000000012 62.500000000000007 116.50000000000001 5.0250000000000012 7.5000000000000009 133.50000000000003
decision_type=1 2 2 2 2 2 2 2 2 2 2 2 2 2 2 2 2 2 2 2 2 2 2
left_child=4 2 6 -3 7 8 11 10 14 15 -1 16 19 -11 -4 -8 -2 -12 -19 -7 -10 -13 -14
right_child=1 3 5 -5 -6 12 9 -9 20 13 17 21 22 -15 -16 -17 -18 18 -20 -21 -22 -23 -24
leaf_value=0.5010920826877866 -0.50551943756066842 0.50177648638349936 -0.09695109539935666 1.5232764840126038 1.3176137709617617 0.024316964883889472 -0.26828938299609767 0.7903348623003279 -0.06497341823397261 -0.26849884561129977 0.67409109660557343 -0.41084925486491281 0.14421090561410654 -0.1784798645391697 -0.1813903026201803 -0.33244516960645126 -0.45353459057055023 0.58913901132695823 0.67686254739761353 0.084543632741632138 -0.0082794096405533237 -0.3705288372541729 0.18228964805603029
leaf_weight=28 52 37 31 23 20 28 31 35 33 84 35 78 23 41 92 118 38 34 20 29 22 38 21
leaf_count=28 52 37 31 23 20 28 31 35 33 84 35 78 23 41 92 118 38 34 20 29 22 38 21
internal_value=-3.06556e-10 -0.151032 -0.235582 0.893351 0.687944 -0.0420863 -0.348052 0.650352 -0.123706 -0.282544 0.608476 -0.435183 0.101758 -0.238973 -0.160109 -0.319097 -0.48357 0.64226 0.621629 0.0549586 -0.0422958 -0.397641 0.162385
internal_weight=991 819 759 60 172 279 480 152 178 274 117 206 101 125 123 149 90 89 54 57 55 116 44
internal_count=991 819 759 60 172 279 480 152 178 274 117 206 101 125 123 149 90 89 54 57 55 116 44
cat_boundaries=0 1
cat_threshold=2
is_linear=0
shrinkage=0.05


Tree=16
num_leaves=24
num_cat=2
split_feature=0 1 1 1 2 0 5 1 5 1 1 1 1 2 1 6 1 6 5 5 1 13 6
split_gain=37921.1 25583.1 5985.45 5342.72 2849.06 1672.22 722.45 670.421 265.233 172.278 138.66 130.434 98.1389 73.5955 88.481 68.9971 56.3255 30.4445 28.7012 12.9453 10.8705 8.76224 2.30227
threshold=0 146.00000000000003 69.500000000000014 196.50000000000003 17.500000000000004 1 6.5000000000000009 104.50000000000001 6.5000000000000009 53.500000000000007 72.500000000000014 83.500000000000014 127.50000000000001 15.500000000000002 86.500000000000014 5.6850000000000014 26.500000000000004 4.7750000000000012 8.5000000000000018 5.5000000000000009 17.500000000000004 1.0000000180025095e-35 5.1150000000000011
decision_type=1 2 2 2 2 1 2 2 2 2 2 2 2 2 2 2 2 2 2 2 2 2 2
left_child=4 2 6 -3 8 7 16 11 -1 18 17 -4 -9 14 -7 -11 20 -10 -8 -18 -2 -12 -19
right_child=1 3 5 -5 -6 13 9 12 10 15 21 -13 -14 -15 -16 -17 19 22 -20 -21 -22 -23 -24
leaf_value=0.48890424581135017 -0.50372092865762264 0.47668765557778853 -0.13226494679645615 1.4471126411272133 1.2094905345336251 -0.23488534962644381 -0.37042525375590607 0.06366735971399716 0.64178314349230603 -0.28782734870910648 0.74530993461608885 -0.026210613268047151 0.15963980264441913 -0.17964869285623233 -0.3537627473149611 -0.21404304759843007 -0.43266855972569163 0.58942532062530517 -0.31521353191799589 -0.39441173200805985 -0.45910097452310422 0.69906706128801621 0.56543430805206307
leaf_weight=34 21 37 49 23 23 49 68 70 34 129 20 71 43 30 23 42 41 20 36 48 39 21 20
leaf_count=34 21 37 49 23 23 49 68 70 34 129 20 71 43 30 23 42 41 20 36 48 39 21 20
internal_value=-2.43779e-10 -0.143481 -0.223803 0.848684 0.653546 -0.0658391 -0.348609 0.0122605 0.611592 -0.300568 0.647865 -0.0695161 0.100188 -0.22353 -0.27286 -0.269705 -0.437277 0.606998 -0.351314 -0.412036 -0.474718 0.721625 0.57743
internal_weight=991 819 759 60 172 335 424 233 149 275 115 120 113 102 72 171 149 74 104 89 60 41 40
internal_count=991 819 759 60 172 335 424 233 149 275 115 120 113 102 72 171 149 74 104 89 60 41 40
cat_boundaries=0 1 2
cat_threshold=2 4
is_linear=0
shrinkage=0.05


Tree=17
num_leaves=23
num_cat=2
split_feature=0 1 1 1 1 0 5 1 2 1 2 1 1 6 2 1 1 5 1 6 5 1
split_gain=34223.8 23088.7 5401.87 4821.8 2596.6 1509.17 652.011 605.055 287.033 155.48 145.612 117.716 88.5704 72.6561 66.42 79.8541 50.8337 25.9029 21.7922 18.9134 11.6832 9.81066
threshold=0 146.00000000000003 69.500000000000014 196.50000000000003 111.50000000000001 1 6.5000000000000009 104.50000000000001 13.500000000000002 53.500000000000007 5.5000000000000009 83.500000000000014 127.50000000000001 6.1150000000000011 15.500000000000002 86.500000000000014 26.500000000000004 8.5000000000000018 64.500000000000014 4.7750000000000012 5.5000000000000009 17.500000000000004
decision_type=1 2 2 2 2 1 2 2 2 2 2 2 2 2 2 2 2 2 2 2 2 2
left_child=4 2 6 -3 8 7 16 11 10 17 -1 -4 -9 -11 15 -7 21 -8 19 -12 -18 -2
right_child=1 3 5 -5 -6 14 9 12 -10 13 18 -13 -14 -15 -16 -17 20 -19 -20 -21 -22 -23
leaf_value=0.43911451697349552 -0.47853486850148158 0.45285327478840548 -0.12565170125085481 1.374757009226343 1.1925346183776857 -0.22314107837725661 -0.35190399008638718 0.06048399170062372 0.71212081636701319 -0.24402492761611941 0.58853814818642358 -0.024900082173481795 0.15165781309438309 -0.34332480827967327 -0.17066625977555913 -0.33607461054040044 -0.41103513531568575 -0.29945285717646281 0.61509439503705066 0.53500616044709182 -0.37469114735722542 -0.43614590718195995
leaf_weight=24 21 37 49 23 20 49 68 70 35 150 33 71 43 21 30 23 41 36 27 33 48 39
leaf_count=24 21 37 49 23 20 49 68 70 35 150 33 71 43 21 30 23 41 36 27 33 48 39
internal_value=-4.55982e-10 -0.136307 -0.212613 0.80625 0.620869 -0.0625471 -0.331179 0.0116474 0.586497 -0.285539 0.548917 -0.0660403 0.0951785 -0.25622 -0.212354 -0.259217 -0.415413 -0.333748 0.577253 0.561772 -0.391434 -0.450982
internal_weight=991 819 759 60 172 335 424 233 152 275 117 120 113 171 102 72 149 104 93 66 89 60
internal_count=991 819 759 60 172 335 424 233 152 275 117 120 113 171 102 72 149 104 93 66 89 60
cat_boundaries=0 1 2
cat_threshold=2 4
is_linear=0
shrinkage=0.05


Tree=18
num_leaves=23
num_cat=2
split_feature=0 1 1 1 1 0 5 1 2 1 1 1 1 6 2 1 1 1 4 5 1 2
split_gain=30887 20837.6 4875.18 4351.68 2343.43 1362.03 588.44 546.128 259.048 140.321 133.034 100.859 84.6642 66.7587 59.944 72.0683 45.94 23.6034 19.7946 11.9456 7.61313 5.90843
threshold=0 146.00000000000003 69.500000000000014 196.50000000000003 111.50000000000001 1 6.5000000000000009 102.50000000000001 13.500000000000002 53.500000000000007 38.500000000000007 83.500000000000014 127.50000000000001 5.6850000000000014 15.500000000000002 86.500000000000014 25.500000000000004 43.500000000000007 1.5000000000000002 5.5000000000000009 17.500000000000004 9.5000000000000018
decision_type=1 2 2 2 2 1 2 2 2 2 2 2 2 2 2 2 2 2 2 2 2 2
left_child=4 2 6 -3 8 7 16 11 10 17 -1 -4 -9 -11 15 -7 20 -8 -12 -18 -2 -20
right_child=1 3 5 -5 -6 14 9 12 -10 13 18 -13 -14 -15 -16 -17 19 -19 21 -21 -22 -23
leaf_value=0.42641610332897734 -0.4546081327256703 0.43021060671355277 -0.11936911526991396 1.3060191567825234 1.1329078930616381 -0.21198402538287398 -0.34719055205583577 0.055634009042652713 0.67651477813720706 -0.26123473935349045 0.5234214692502408 -0.025273643612094662 0.14407492432483407 -0.18865715322040377 -0.16213294471303621 -0.31927088149215865 -0.39161311750826627 -0.29822911601513624 0.55739455761448031 -0.35595659216245018 -0.41631827354431156 0.59174380075363886
leaf_weight=28 21 37 49 23 20 49 40 73 35 129 37 68 43 42 30 23 46 64 31 48 34 21
leaf_count=28 21 37 49 23 20 49 40 73 35 129 37 68 43 42 30 23 46 64 31 48 34 21
internal_value=-6.00849e-10 -0.129491 -0.201982 0.765937 0.589826 -0.0594198 -0.31462 0.0110651 0.557172 -0.271262 0.521471 -0.0646811 0.0884181 -0.243409 -0.201736 -0.246256 -0.394642 -0.31706 0.551376 -0.373406 -0.430938 0.571266
internal_weight=991 819 759 60 172 335 424 233 152 275 117 117 116 171 102 72 149 104 89 94 55 52
internal_count=991 819 759 60 172 335 424 233 152 275 117 117 116 171 102 72 149 104 89 94 55 52
cat_boundaries=0 1 2
cat_threshold=2 4
is_linear=0
shrinkage=0.05


Tree=19
num_leaves=23
num_cat=1
split_feature=0 1 1 1 2 1 1 5 1 1 2 1 1 1 2 1 1 5 6 6 1 1
split_gain=27875.5 18813.6 4653.85 3607.05 2131.29 1238.87 410.184 269.976 203.381 120.765 84.5676 72.4731 64.2349 50.5492 46.1766 43.7231 36.3284 35.7716 46.8917 15.321 20.9805 7.573
threshold=0 149.50000000000003 91.500000000000014 196.50000000000003 17.500000000000004 59.500000000000007 115.50000000000001 6.5000000000000009 45.500000000000007 69.500000000000014 13.500000000000002 134.50000000000003 63.500000000000007 47.500000000000007 5.5000000000000009 28.500000000000004 72.500000000000014 17.500000000000004 5.1150000000000011 4.7750000000000012 62.500000000000007 123.50000000000001
decision_type=1 2 2 2 2 2 2 2 2 2 2 2 2 2 2 2 2 2 2 2 2 2
left_child=4 2 5 -3 8 7 17 15 14 12 19 21 -7 -9 -1 -2 -11 18 -4 -10 -21 -8
right_child=1 3 6 -5 -6 9 11 13 10 16 -12 -13 -14 -15 -16 -17 -18 -19 -20 20 -22 -23
leaf_value=0.37360832512378694 -0.40303914551224029 0.42503914875966137 -0.089384989137193421 1.2407182053379391 1.0408900224644204 -0.1790395290851593 0.067487173470167014 -0.3152461068730959 0.55945080888682408 -0.091571812007738201 0.62746549211442471 0.19760579407215118 -0.25841180636332584 -0.26072912508586671 0.48105205774307253 -0.34809391705195109 -0.159590289966245 0.015850393269211057 -0.01058993841388396 0.48548316700117927 0.55253407597541815 0.1031116373198373
leaf_weight=20 70 33 41 23 23 50 26 71 29 23 32 20 52 106 20 75 134 25 35 28 20 35
leaf_count=20 70 33 41 23 23 50 26 71 29 23 32 20 52 106 20 75 134 25 35 28 20 35
internal_value=-3.94943e-10 -0.123017 -0.189441 0.76005 0.560334 -0.258555 0.0311897 -0.324036 0.523761 -0.177145 0.559148 0.115009 -0.219504 -0.282598 0.42733 -0.374619 -0.149626 -0.0360314 -0.0530978 0.530757 0.513421 0.0879274
internal_weight=991 819 763 56 172 581 182 322 149 259 109 81 102 177 40 145 157 101 76 77 48 61
internal_count=991 819 763 56 172 581 182 322 149 259 109 81 102 177 40 145 157 101 76 77 48 61
cat_boundaries=0 1
cat_threshold=2
is_linear=0
shrinkage=0.05


Tree=20
num_leaves=24
num_cat=1
split_feature=0 1 1 1 1 1 1 2 2 1 2 6 1 1 6 1 6 1 6 2 1 1 6
split_gain=25157.6 16983 3989.59 3540.77 1932.11 806.321 649.871 206.194 119.525 112.736 111.672 99.2814 97.5404 94.0325 81.085 64.227 35.0609 16.3555 16.581 15.5163 15.3675 11.8391 10.2415
threshold=0 146.00000000000003 77.500000000000014 196.50000000000003 111.50000000000001 110.50000000000001 47.500000000000007 13.500000000000002 13.500000000000002 62.500000000000007 5.5000000000000009 5.660000000000001 96.500000000000014 31.500000000000004 5.1450000000000005 119.50000000000001 4.1750000000000007 64.500000000000014 4.7750000000000012 4.5000000000000009 131.50000000000003 39.500000000000007 4.5400000000000009
decision_type=1 2 2 2 2 2 2 2 2 2 2 2 2 2 2 2 2 2 2 2 2 2 2
left_child=4 2 6 -3 7 8 13 10 11 16 -1 -4 -10 19 -11 22 -8 18 -12 -2 -17 -15 -7
right_child=1 3 5 -5 -6 15 9 -9 12 14 17 -13 -14 21 -16 20 -18 -19 -20 -21 -22 -23 -24
leaf_value=0.37446940143903101 -0.39290185686773982 0.38867749243571953 -0.23837599054626796 1.1786823257803918 1.0252515695989133 0.056954713286831972 -0.19328342800339063 0.60895333426339293 -0.1070131805277877 -0.2123789711456214 0.5070924896182436 -0.094432935774326321 -0.018877738944412966 -0.32748084257949484 -0.12660340274252543 0.086818046610930871 -0.2592637239456177 0.52822562588585753 0.4569699092344805 -0.35086873518793205 0.13707115836441516 -0.29456038342581853 0.006354514062404633
leaf_weight=24 52 37 23 23 20 20 24 35 77 84 33 25 53 44 41 29 125 27 33 38 32 72 20
leaf_count=24 52 37 23 23 20 20 24 35 77 84 33 25 53 44 41 29 125 27 33 38 32 72 20
internal_value=1.98012e-10 -0.116866 -0.182309 0.691513 0.532318 -0.0319492 -0.269706 0.502479 -0.0959776 -0.21926 0.470627 -0.163406 -0.071081 -0.336803 -0.184245 0.0808929 -0.248636 0.495442 0.482031 -0.375155 0.11318 -0.307047 0.0316546
internal_weight=991 819 759 60 172 279 480 152 178 274 117 48 130 206 125 101 149 93 66 90 61 116 40
internal_count=991 819 759 60 172 279 480 152 178 274 117 48 130 206 125 101 149 93 66 90 61 116 40
cat_boundaries=0 1
cat_threshold=2
is_linear=0
shrinkage=0.05


Tree=21
num_leaves=23
num_cat=1
split_feature=0 1 1 1 2 1 1 5 1 1 2 1 1 1 2 1 1 2 5 4 2 6
split_gain=22704.8 15340.8 3786.34 2931.94 1751.44 1012.98 333.917 222.724 170.062 101.412 65.706 61.4622 59.3176 40.9775 36.9154 35.5029 35.462 32.11 14.4492 13.4448 6.87055 2.51077
threshold=0 149.50000000000003 91.500000000000014 196.50000000000003 17.500000000000004 59.500000000000007 115.50000000000001 6.5000000000000009 45.500000000000007 69.500000000000014 13.500000000000002 63.500000000000007 134.50000000000003 47.500000000000007 5.5000000000000009 72.500000000000014 25.500000000000004 15.500000000000002 17.500000000000004 1.5000000000000002 23.500000000000004 4.8050000000000006
decision_type=1 2 2 2 2 2 2 2 2 2 2 2 2 2 2 2 2 2 2 2 2 2
left_child=4 2 5 -3 8 7 17 16 14 11 19 -7 20 -9 -1 -11 -2 -4 -19 -10 -8 -21
right_child=1 3 6 -5 -6 9 12 13 10 15 -12 -13 -14 -15 -16 -17 -18 18 -20 21 -22 -23
leaf_value=0.33620443910360343 -0.37012905624779791 0.38435330996007633 -0.081801272569224245 1.1197481704794843 0.94120294270308136 -0.15896389937400821 0.063155727647244933 -0.28431225209168987 0.45562452836470169 -0.077120149135589608 0.56499408688396213 -0.23660427698722253 0.17835587739944458 -0.23522744853541538 0.43227135896682739 -0.14436139087957234 -0.31916860077116227 -0.031741155318769754 0.014661653578281404 0.5109275650978089 0.09675707066881245 0.48694038788477584
leaf_weight=20 55 33 25 23 23 50 32 71 33 23 32 52 20 106 20 134 90 51 25 20 29 24
leaf_count=20 55 33 25 23 23 50 32 71 33 23 32 52 20 106 20 134 90 51 25 20 29 24
internal_value=-6.85617e-10 -0.111023 -0.171003 0.68639 0.505702 -0.233343 0.0280042 -0.292555 0.472416 -0.159729 0.504776 -0.198545 0.10363 -0.254917 0.384238 -0.134511 -0.338498 -0.0326464 -0.0164771 0.47975 0.0791301 0.497844
internal_weight=991 819 763 56 172 581 182 322 149 259 109 102 81 177 40 157 145 101 76 77 61 44
internal_count=991 819 763 56 172 581 182 322 149 259 109 102 81 177 40 157 145 101 76 77 61 44
cat_boundaries=0 1
cat_threshold=2
is_linear=0
shrinkage=0.05


Tree=22
num_leaves=26
num_cat=1
split_feature=0 1 1 1 1 2 1 5 1 1 5 2 6 2 1 1 1 2 5 1 6 1 6 1 6
split_gain=20491 13845.4 3125.6 3097.49 1593.25 1520.5 590.584 536.116 180.309 168.621 127.626 100.988 89.63 82.0763 78.9543 48.958 39.119 33.3162 31.1121 13.3254 12.6448 16.668 7.96084 5.37253 4.29544
threshold=0 142.50000000000003 77.500000000000014 196.50000000000003 111.50000000000001 26.500000000000004 110.50000000000001 6.5000000000000009 62.500000000000007 45.500000000000007 9.5000000000000018 13.500000000000002 5.660000000000001 13.500000000000002 96.500000000000014 47.500000000000007 119.50000000000001 5.5000000000000009 5.5000000000000009 17.500000000000004 4.7750000000000012 62.500000000000007 4.5400000000000009 131.50000000000003 4.955000000000001
decision_type=1 2 2 2 2 2 2 2 2 2 2 2 2 2 2 2 2 2 2 2 2 2 2 2 2
left_child=4 2 7 5 9 -3 11 18 15 17 -10 12 -4 20 -13 -9 22 -1 19 -2 -11 -22 -8 -18 -20
right_child=1 3 6 -5 -6 -7 16 8 10 13 -12 14 -14 -15 -16 -17 23 -19 24 -21 21 -23 -24 -25 -26
leaf_value=0.31939421653747563 -0.37357423419044133 0.65081756241619593 -0.2195111258522324 1.0637607631152093 0.92786935895681388 0.04165847989774886 0.051452284492552285 -0.27009663984809124 -0.044372284412384035 0.48182990304354967 -0.18250773651342767 -0.095742145971721648 -0.082743460118770595 0.54810619490487233 -0.016447070035380578 -0.21900071665860607 0.078566223382949829 0.41065779328346252 -0.30619378316970103 -0.32882183760404593 0.41511147618293764 0.47487524032592776 0.0068405139446258553 0.10927191908870425 -0.27604271460462504
leaf_weight=20 21 20 23 23 20 21 20 71 20 29 102 77 25 35 53 138 29 20 21 80 28 20 20 28 27
leaf_count=20 21 20 23 23 20 21 20 71 20 29 102 77 25 35 53 138 29 20 21 80 28 20 20 28 27
internal_value=-1.5872e-09 -0.105471 -0.166614 0.599339 0.480417 0.338809 -0.0322083 -0.243617 -0.208164 0.453148 -0.159863 -0.0862988 -0.148278 0.48462 -0.0634142 -0.236359 0.0670504 0.365026 -0.322376 -0.338127 0.455762 0.440013 0.0291464 0.0936497 -0.289234
internal_weight=991 819 755 64 172 41 275 480 331 152 122 178 48 112 130 209 97 40 149 101 77 48 40 57 48
internal_count=991 819 755 64 172 41 275 480 331 152 122 178 48 112 130 209 97 40 149 101 77 48 40 57 48
cat_boundaries=0 1
cat_threshold=2
is_linear=0
shrinkage=0.05


Tree=23
num_leaves=20
num_cat=2
split_feature=1 0 1 1 2 1 0 6 1 1 1 1 1 1 6 6 1 6 1
split_gain=18702.8 15640.2 5161.01 1105.22 1372.25 945.951 349.631 188.35 182.511 144.892 144.827 109.249 61.302 73.307 27.8024 27.0546 25.8649 18.3634 17.3521
threshold=196.50000000000003 0 96.500000000000014 142.50000000000003 26.500000000000004 59.500000000000007 1 5.7750000000000012 39.500000000000007 113.50000000000001 81.500000000000014 41.500000000000007 96.500000000000014 72.500000000000014 6.2200000000000015 4.7750000000000012 23.500000000000004 5.205000000000001 123.50000000000001
decision_type=2 1 2 2 2 2 1 2 2 2 2 2 2 2 2 2 2 2 2
left_child=1 11 5 9 -5 8 10 -8 16 17 -7 -1 13 15 -10 -13 -3 -4 -11
right_child=-2 2 3 4 -6 6 7 -9 14 18 -12 12 -14 -15 -16 -17 -18 -19 -20
leaf_value=0.33505526166409255 1.1703392852436412 -0.3417534804925686 -0.043031444594057076 0.61827667683362963 0.039575553248592077 -0.1093172495193938 -0.23555229204674172 -0.072600962150664569 -0.22548281925167155 0.047734659454888771 -0.0053238091345589895 0.46172283808390296 0.35766413778066641 0.51257773399353024 -0.28652393732752118 0.40042368464999734 -0.29408360219770863 0.011126065952703358 0.093864771787156465
leaf_weight=32 33 41 45 20 21 94 114 21 167 36 52 30 20 35 21 45 93 24 47
leaf_count=32 33 41 45 20 21 94 114 21 167 36 52 30 20 35 21 45 93 24 47
internal_value=-3.05711e-10 -0.0403144 -0.131895 0.0914887 0.321869 -0.20558 -0.138542 -0.195707 -0.264082 0.0293467 -0.0676453 0.393523 0.438187 0.452827 -0.232301 0.424943 -0.308669 -0.024194 0.0738565
internal_weight=991 958 796 193 41 603 281 135 322 152 146 162 130 110 188 75 134 69 83
internal_count=991 958 796 193 41 603 281 135 322 152 146 162 130 110 188 75 134 69 83
cat_boundaries=0 1 2
cat_threshold=2 4
is_linear=0
shrinkage=0.05


Tree=24
num_leaves=19
num_cat=2
split_feature=1 0 1 1 1 0 6 5 1 1 2 1 1 1 1 5 6 1
split_gain=16879.2 14115.2 4657.81 1006.71 853.72 315.542 169.986 165.107 148.207 134.042 99.6684 32.4641 27.0242 26.4165 74.1834 18.39 15.8105 12.7166
threshold=196.50000000000003 0 96.500000000000014 146.00000000000003 59.500000000000007 1 5.7750000000000012 6.5000000000000009 116.50000000000001 72.500000000000014 5.5000000000000009 43.500000000000007 28.500000000000004 94.500000000000014 72.500000000000014 17.500000000000004 4.955000000000001 131.50000000000003
decision_type=2 1 2 2 2 1 2 2 2 2 2 2 2 2 2 2 2 2
left_child=1 10 4 8 7 9 -7 12 15 -6 -1 -9 -3 14 16 -4 -12 -10
right_child=-2 2 3 -5 5 6 -8 11 17 -11 13 -13 -14 -15 -16 -17 -18 -19
leaf_value=0.30288148118803898 1.111822314063708 -0.31277805294309347 -0.031197328492999079 0.32139428657152364 -0.12365451360505725 -0.22377467562297457 -0.068970916384742384 -0.25810108527541165 0.06483003773340365 -0.026925208581140243 0.41601501083374021 -0.20690129386247513 -0.26958135986328124 0.36304688196290624 0.48758903816342358 0.018580947816371918 0.37182162018383252 0.10688822288066149
leaf_weight=24 33 70 55 37 63 114 21 40 41 83 50 137 75 22 32 28 34 32
leaf_count=24 33 70 55 37 63 114 21 40 41 83 50 137 75 22 32 28 34 32
internal_value=-3.84746e-10 -0.0382987 -0.1253 0.0869143 -0.195301 -0.131615 -0.185922 -0.250878 0.0313004 -0.064263 0.373847 -0.218472 -0.290435 0.413279 0.422806 -0.0144047 0.398127 0.0832665
internal_weight=991 958 796 193 603 281 135 322 156 146 162 177 145 138 116 83 84 73
internal_count=991 958 796 193 603 281 135 322 156 146 162 177 145 138 116 83 84 73
cat_boundaries=0 1 2
cat_threshold=2 4
is_linear=0
shrinkage=0.05


Tree=25
num_leaves=19
num_cat=2
split_feature=1 0 1 1 1 0 6 1 1 1 1 1 1 5 6 5 1 1
split_gain=15233.5 12739 4203.67 908.559 770.483 284.776 153.412 150.005 133.757 122.27 92.8163 44.98 71.6873 25.3846 23.8169 16.597 16.1276 11.4768
threshold=196.50000000000003 0 96.500000000000014 146.00000000000003 59.500000000000007 1 5.7750000000000012 36.500000000000007 116.50000000000001 81.500000000000014 31.500000000000004 96.500000000000014 72.500000000000014 6.5000000000000009 4.955000000000001 17.500000000000004 23.500000000000004 131.50000000000003
decision_type=2 1 2 2 2 1 2 2 2 2 2 2 2 2 2 2 2 2
left_child=1 10 4 8 7 9 -7 16 15 -6 -1 12 14 -9 -12 -4 -3 -10
right_child=-2 2 3 -5 5 6 -8 13 17 -11 11 -13 -14 -15 -16 -17 -18 -19
leaf_value=0.27623314317315817 1.0562312111371395 -0.30902690620320605 -0.029637463343414397 0.30532457522443823 -0.099263665603196383 -0.21258594376247442 -0.065522371587299164 -0.24848053269088269 0.061588536275596156 -0.0037113583825815187 0.40194643338521319 0.32177899623289707 0.46310315472739083 -0.20410899318844439 0.34934239784876508 0.017651900369673967 -0.27002719696362815 0.10154381394386292
leaf_weight=20 33 41 55 37 94 114 21 40 41 52 48 20 35 166 39 28 75 32
leaf_count=20 33 41 55 37 94 114 21 40 41 52 48 20 35 166 39 28 75 32
internal_value=-1.66905e-10 -0.0363837 -0.119035 0.0825686 -0.185536 -0.125034 -0.176626 -0.238334 0.0297354 -0.0610498 0.355155 0.391281 0.402675 -0.212725 0.378365 -0.0136844 -0.283812 0.0791032
internal_weight=991 958 796 193 603 281 135 322 156 146 162 142 122 206 87 83 116 73
internal_count=991 958 796 193 603 281 135 322 156 146 162 142 122 206 87 83 116 73
cat_boundaries=0 1 2
cat_threshold=2 4
is_linear=0
shrinkage=0.05


Tree=26
num_leaves=24
num_cat=1
split_feature=0 1 5 2 2 5 1 6 6 1 1 2 6 2 2 6 2 5 1 6 4 5 6
split_gain=13795 9051.46 2714.67 2301.9 1163.57 450.086 406.173 182.359 124 110.4 91.561 81.892 57.0318 43.9756 35.7668 24.9116 23.0719 21.7745 20.8566 16.8591 10.2493 5.13671 1.4644
threshold=0 149.50000000000003 30.500000000000004 13.500000000000002 17.500000000000004 6.5000000000000009 100.50000000000001 5.7750000000000012 6.080000000000001 45.500000000000007 56.500000000000007 23.500000000000004 4.1450000000000005 13.500000000000002 4.5000000000000009 3.9350000000000005 5.5000000000000009 13.500000000000002 119.50000000000001 4.6550000000000011 1.5000000000000002 5.5000000000000009 4.955000000000001
decision_type=1 2 2 2 2 2 2 2 2 2 2 2 2 2 2 2 2 2 2 2 2 2 2
left_child=4 3 -3 5 9 14 15 10 -9 16 -7 18 -13 20 19 -5 -1 -17 -8 -2 -11 -16 -22
right_child=1 2 -4 6 -6 7 11 8 -10 13 -12 12 -14 -15 21 17 -18 -19 -20 -21 22 -23 -24
leaf_value=0.25698491998016831 -0.32722646236419678 0.78543888173169563 0.058903681114315987 -0.12744954384186052 0.74810143242711602 -0.21257813662055913 0.0022108543102466872 -0.0031876418452996477 -0.14567092560433054 0.35054010694677179 -0.15610098786877866 0.050442267102854592 0.15802016502076932 0.4413419740274549 -0.25995517075061797 -0.032266529675187741 0.33293206274509429 -0.084127802916093564 0.05473523548355809 -0.27513126382013647 0.39572896560033166 -0.23497011295209327 0.37740981698036197
leaf_weight=20 25 36 20 22 23 127 63 26 37 33 165 28 22 32 36 29 20 67 27 41 24 48 20
leaf_count=20 25 36 20 22 23 127 63 26 37 33 165 28 22 32 36 29 20 67 27 41 24 48 20
internal_value=1.17661e-10 -0.0865394 0.525962 -0.132628 0.394182 -0.194703 -0.0111249 -0.164019 -0.0868683 0.366005 -0.180665 0.0464712 0.0977765 0.392078 -0.26732 -0.0794592 0.294958 -0.0684614 0.0179682 -0.294864 0.371604 -0.245678 0.387402
internal_weight=991 819 56 763 172 505 258 355 63 149 292 140 50 109 150 118 40 96 90 66 77 84 44
internal_count=991 819 56 763 172 505 258 355 63 149 292 140 50 109 150 118 40 96 90 66 77 84 44
cat_boundaries=0 1
cat_threshold=2
is_linear=0
shrinkage=0.05


Tree=27
num_leaves=20
num_cat=2
split_feature=1 0 1 1 1 1 0 1 6 1 1 1 1 1 6 1 6 6 1
split_gain=13176.3 10326.7 3335.41 656.206 1826.06 630.867 212.813 148.631 100.456 100.204 83.8101 73.235 54.4548 59.1752 28.7638 26.7527 20.9186 17.5484 7.34461
threshold=196.50000000000003 0 96.500000000000014 137.50000000000003 150.50000000000003 62.500000000000007 1 43.500000000000007 5.6300000000000008 71.500000000000014 113.50000000000001 31.500000000000004 96.500000000000014 72.500000000000014 4.2950000000000008 29.500000000000004 4.7750000000000012 5.205000000000001 119.50000000000001
decision_type=2 1 2 2 2 2 1 2 2 2 2 2 2 2 2 2 2 2 2
left_child=1 11 5 10 -5 7 9 15 -8 -7 17 -1 13 16 -9 -3 -13 -4 -12
right_child=-2 2 3 4 -6 6 8 14 -10 -11 18 12 -14 -15 -16 -17 -18 -19 -20
leaf_value=0.24881277099251747 0.98232640267321569 -0.26687403404712678 -0.038193454135002365 0.59462297320365909 -0.046363784670829772 -0.11373229477294655 -0.18769727104449088 -0.14227576825767757 -0.069356682625683883 -0.020250987490574118 0.033878806462654697 0.36929794424458556 0.27453419722616673 0.41844557830265594 -0.19002876063721294 -0.22654138803482057 0.31986615244223149 0.014748749416321517 0.066323466458410585
leaf_weight=20 33 75 45 20 25 43 97 40 22 86 26 38 20 35 149 91 49 24 53
leaf_count=20 33 75 45 20 25 43 97 40 22 86 26 38 20 35 149 91 49 24 53
internal_value=4.97708e-10 -0.033838 -0.108233 0.0713193 0.238519 -0.167497 -0.106309 -0.210243 -0.152965 -0.0477128 0.0204815 0.318717 0.351007 0.363544 -0.179922 -0.244764 0.341457 -0.0197788 0.0556455
internal_weight=991 958 796 193 45 603 248 355 119 129 148 162 142 122 189 166 87 69 79
internal_count=991 958 796 193 45 603 248 355 119 129 148 162 142 122 189 166 87 69 79
cat_boundaries=0 1 2
cat_threshold=2 4
is_linear=0
shrinkage=0.05


Tree=28
num_leaves=19
num_cat=2
split_feature=1 0 1 1 1 0 6 1 1 1 1 1 1 2 6 1 5 4
split_gain=11891.6 9319.85 3010.21 614.601 569.423 243.909 125.787 110.754 103.478 98.2088 67.2636 55.5453 44.1193 22.9195 21.8969 16.0512 13.7469 13.1548
threshold=196.50000000000003 0 96.500000000000014 149.50000000000003 59.500000000000007 1 5.7750000000000012 39.500000000000007 116.50000000000001 81.500000000000014 41.500000000000007 96.500000000000014 77.500000000000014 24.500000000000004 6.2200000000000015 23.500000000000004 17.500000000000004 1.5000000000000002
decision_type=2 1 2 2 2 1 2 2 2 2 2 2 2 2 2 2 2 2
left_child=1 10 4 8 7 9 -7 15 16 -6 -1 12 17 -10 -9 -3 -4 -12
right_child=-2 2 3 -5 5 6 -8 14 13 -11 11 -13 -14 -15 -16 -17 -18 -19
leaf_value=0.25653312122449279 0.93321007526282118 -0.26530771342719478 -0.026016284905966709 0.26422092304988343 -0.083445077425146355 -0.18640385656127412 -0.053238130751110259 -0.17370361393083356 0.044076940452768693 0.0021908757384293356 0.3111366871240977 0.26080748662352565 0.40691145261128742 0.098861652314662929 -0.22787524085669292 -0.22775489021373052 0.017021677682974509 0.3511838441309722
leaf_weight=32 33 41 55 33 94 114 21 167 42 52 37 20 27 35 21 93 28 46
leaf_count=32 33 41 55 33 94 114 21 167 42 52 37 20 27 35 21 93 28 46
internal_value=-9.35787e-11 -0.0321461 -0.102822 0.0677533 -0.159122 -0.10711 -0.154262 -0.204512 0.0272319 -0.0495507 0.302781 0.337456 0.351392 0.0689791 -0.179755 -0.239245 -0.0114975 0.333331
internal_weight=991 958 796 193 603 281 135 322 160 146 162 130 110 77 188 134 83 83
internal_count=991 958 796 193 603 281 135 322 160 146 162 130 110 77 188 134 83 83
cat_boundaries=0 1 2
cat_threshold=2 4
is_linear=0
shrinkage=0.05


Tree=29
num_leaves=19
num_cat=2
split_feature=1 0 1 1 2 0 1 1 5 2 13 6 1 1 2 6 1 1
split_gain=10732.2 8411.17 2720.1 613.03 454.859 153.399 131.274 115.708 65.8301 61.6837 57.8381 46.0492 25.7553 45.1685 18.0345 12.1088 10.7687 7.20202
threshold=196.50000000000003 0 91.500000000000014 146.00000000000003 8.5000000000000018 1 71.500000000000014 113.50000000000001 5.5000000000000009 5.5000000000000009 1.0000000180025095e-35 5.9150000000000009 94.500000000000014 72.500000000000014 15.500000000000002 4.955000000000001 127.50000000000001 17.500000000000004
decision_type=2 1 2 2 2 1 2 2 2 2 2 2 2 2 2 2 2 2
left_child=1 9 4 7 8 6 -6 14 17 -1 -7 -10 13 15 -4 -11 -9 -3
right_child=-2 2 3 -5 5 10 -8 16 11 12 -12 -13 -14 -15 -16 -17 -18 -19
leaf_value=0.23141470452149712 0.88654957359487363 -0.26436737009457184 -0.062067204217116034 0.23821601968359307 -0.11043189759844932 -0.14280810253322127 -0.023467446710557158 0.037974565887693754 -0.20184327909406627 0.32406819629669192 -0.20523182110450533 -0.13569728931611671 0.2686642822894183 0.37822141051292424 -0.011554614371105807 0.28539276964524213 0.073159021071412353 -0.23146680891513827
leaf_weight=24 33 21 24 37 107 100 73 43 106 50 59 35 22 32 67 34 44 80
leaf_count=24 33 21 24 37 107 100 73 43 106 50 59 35 22 32 67 34 44 80
internal_value=-4.59529e-10 -0.0305388 -0.0976806 0.0530331 -0.155134 -0.117755 -0.071207 0.0145401 -0.207495 0.287642 -0.156151 -0.185424 0.318264 0.327671 -0.0248766 0.308414 0.055769 -0.238308
internal_weight=991 958 796 215 581 339 180 178 242 162 159 141 138 116 91 84 87 101
internal_count=991 958 796 215 581 339 180 178 242 162 159 141 138 116 91 84 87 101
cat_boundaries=0 1 2
cat_threshold=2 4
is_linear=0
shrinkage=0.05


Tree=30
num_leaves=20
num_cat=2
split_feature=1 0 1 1 2 0 1 1 5 1 13 1 6 2 2 6 2 6 1
split_gain=9685.8 7591.08 2454.89 555.349 410.51 138.442 118.474 115.296 59.4117 57.8486 52.1989 50.7249 41.5594 32.5322 22.6075 18.2267 15.7353 10.3253 6.49982
threshold=196.50000000000003 0 91.500000000000014 149.50000000000003 8.5000000000000018 1 71.500000000000014 113.50000000000001 5.5000000000000009 45.500000000000007 1.0000000180025095e-35 96.500000000000014 5.9150000000000009 13.500000000000002 23.500000000000004 5.205000000000001 5.5000000000000009 4.7750000000000012 17.500000000000004
decision_type=2 1 2 2 2 1 2 2 2 2 2 2 2 2 2 2 2 2 2
left_child=1 9 4 7 8 6 -6 15 18 16 -7 13 -10 17 -9 -4 -1 -11 -3
right_child=-2 2 3 -5 5 10 -8 14 12 11 -12 -13 -14 -15 -16 -17 -18 -19 -20
leaf_value=0.20658710628747939 0.84222209020094452 -0.25114899788584027 -0.038550831637685266 0.23909907397447211 -0.10491030184186508 -0.13566769786924124 -0.02229407453041983 0.029041316076403575 -0.19175111555828239 0.32912629076412747 -0.19497022904392522 0.23442702248692512 -0.12891242578625681 0.36979018999980046 0.079032584181891727 0.0099328201264142994 0.26930722534656526 0.29092057123780252 -0.21989346958696843
leaf_weight=20 33 21 63 33 107 100 73 42 106 28 59 20 35 26 49 28 20 48 80
leaf_count=20 33 21 63 33 107 100 73 42 106 28 59 20 35 26 49 28 20 48 80
internal_value=-2.43262e-10 -0.0290118 -0.0927966 0.0503815 -0.147377 -0.111867 -0.0676467 0.0161635 -0.19712 0.27326 -0.148343 0.307236 -0.176153 0.321512 0.0559597 -0.0236328 0.237947 0.304996 -0.226392
internal_weight=991 958 796 215 581 339 180 182 242 162 159 122 141 102 91 91 40 76 101
internal_count=991 958 796 215 581 339 180 182 242 162 159 122 141 102 91 91 40 76 101
cat_boundaries=0 1 2
cat_threshold=2 4
is_linear=0
shrinkage=0.05


Tree=31
num_leaves=20
num_cat=2
split_feature=1 0 1 1 1 0 1 6 1 1 1 1 1 6 5 1 6 2 4
split_gain=8741.43 6850.95 2218.05 454.11 438.807 139.036 95.4189 81.7634 76.0587 73.9168 52.2084 45.7792 29.8324 25.3539 18.4912 18.0934 15.4872 14.2011 12.9022
threshold=196.50000000000003 0 96.500000000000014 149.50000000000003 62.500000000000007 1 43.500000000000007 5.6300000000000008 116.50000000000001 83.500000000000014 45.500000000000007 96.500000000000014 77.500000000000014 6.2200000000000015 20.500000000000004 31.500000000000004 4.2550000000000008 5.5000000000000009 1.5000000000000002
decision_type=2 1 2 2 2 1 2 2 2 2 2 2 2 2 2 2 2 2 2
left_child=1 10 4 8 6 9 15 -7 16 -6 17 12 18 -8 -10 -3 -4 -1 -12
right_child=-2 2 3 -5 5 7 13 -9 14 -11 11 -13 -14 -15 -16 -17 -18 -19 -20
leaf_value=0.19625775456428529 0.80011099414391951 -0.21496258729034001 -0.048102794028818611 0.22714412027236186 -0.069803970955630276 -0.15321553382715308 -0.14068964759751065 -0.046451316909356555 0.091639162041246891 0.0088427617274066238 0.26704250301633564 0.22270567893981932 0.35050422350565591 -0.19474413347244265 0.040703619186937511 -0.18182991525452388 0.0023994633957507123 0.25584186375141144 0.30861133277416231
leaf_weight=20 33 90 20 33 82 97 164 22 28 47 35 20 27 25 49 76 63 20 40
leaf_count=20 33 90 20 33 82 97 164 22 28 47 35 20 27 25 49 76 63 20 40
internal_value=3.37052e-10 -0.0275612 -0.0881567 0.0582655 -0.136484 -0.0854522 -0.172134 -0.123131 0.0234343 -0.0381893 0.259597 0.291874 0.305437 -0.14784 0.0592256 -0.199793 -0.00976976 0.22605 0.289213
internal_weight=991 958 796 193 603 248 355 119 160 129 162 122 102 189 77 166 83 40 75
internal_count=991 958 796 193 603 248 355 119 160 129 162 122 102 189 77 166 83 40 75
cat_boundaries=0 1 2
cat_threshold=2 4
is_linear=0
shrinkage=0.05


Tree=32
num_leaves=19
num_cat=2
split_feature=1 0 1 1 1 0 1 6 1 1 1 1 1 6 2 2 6 6
split_gain=7889.14 6182.98 2001.79 409.834 396.024 125.48 86.1156 74.2671 69.026 67.2492 47.5202 34.0068 36.897 23.0514 21.467 16.8119 16.4756 15.3611
threshold=196.50000000000003 0 96.500000000000014 149.50000000000003 62.500000000000007 1 43.500000000000007 5.1750000000000007 113.50000000000001 85.500000000000014 31.500000000000004 96.500000000000014 72.500000000000014 4.2950000000000008 23.500000000000004 4.5000000000000009 5.1300000000000008 5.205000000000001
decision_type=2 1 2 2 2 1 2 2 2 2 2 2 2 2 2 2 2 2
left_child=1 10 4 8 6 9 15 -7 17 -6 -1 12 16 -8 -10 -3 -12 -4
right_child=-2 2 3 -5 5 7 13 -9 14 -11 11 -13 -14 -15 -16 -17 -18 -19
leaf_value=0.18968292146921159 0.76010544941280833 -0.21240871991623533 -0.032681117190255064 0.21578691380493567 -0.063733866359953859 -0.15491050936611772 -0.10674606718122959 -0.071292846500873572 0.02462889805790924 0.013797079621836905 0.27906592448552447 0.2115703897178173 0.32526255130767823 -0.14949515234904001 0.073342942883621684 -0.17860307589609614 0.23203395296026164 0.016851760322848956
leaf_weight=20 33 55 45 33 88 79 40 40 42 41 60 20 35 149 49 111 27 24
leaf_count=20 33 55 45 33 88 79 40 40 42 41 60 20 35 149 49 111 27 24
internal_value=1.17473e-10 -0.0261832 -0.0837489 0.0553522 -0.129659 -0.0811796 -0.163527 -0.116974 0.0222626 -0.0362799 0.246617 0.272003 0.28191 -0.140448 0.0508595 -0.189804 0.26447 -0.0154523
internal_weight=991 958 796 193 603 248 355 119 160 129 162 142 122 189 91 166 87 69
internal_count=991 958 796 193 603 248 355 119 160 129 162 142 122 189 91 166 87 69
cat_boundaries=0 1 2
cat_threshold=2 4
is_linear=0
shrinkage=0.05


Tree=33
num_leaves=20
num_cat=2
split_feature=1 0 1 1 1 0 1 1 1 1 1 1 4 2 6 2 2 1 1
split_gain=7119.95 5580.14 1806.62 370.909 357.411 113.245 78.0054 74.1445 62.344 55.564 43.6142 37.511 29.8448 25.0597 13.8634 11.5803 9.63517 8.42133 8.174
threshold=196.50000000000003 0 96.500000000000014 146.00000000000003 62.500000000000007 1 36.500000000000007 71.500000000000014 72.500000000000014 113.50000000000001 45.500000000000007 96.500000000000014 1.5000000000000002 13.500000000000002 5.205000000000001 5.5000000000000009 8.5000000000000018 127.50000000000001 17.500000000000004
decision_type=2 1 2 2 2 1 2 2 2 2 2 2 2 2 2 2 2 2 2
left_child=1 10 4 9 6 8 18 -7 -6 14 15 13 -8 16 -4 -1 -12 -11 -3
right_child=-2 2 3 -5 5 7 12 -9 -10 17 11 -13 -14 -15 -16 -17 -18 -19 -20
leaf_value=0.17653720647096635 0.72210017781365998 -0.21722298690250944 -0.031047061387863423 0.19491124068563048 -0.083828572556376463 -0.06893589195202697 -0.14478753830685662 -0.15069310045242312 -0.011260730938997165 0.029666474972699964 0.2901959561166309 0.2009918684512377 -0.084875724237898131 0.31825209580934966 0.016009171990056834 0.23034304291009905 0.2503838081793352 0.060780731385404421 -0.18275270182149192
leaf_weight=20 33 21 45 37 46 44 216 75 83 43 21 20 23 26 24 20 55 44 95
leaf_count=20 33 21 45 37 46 44 216 75 83 43 21 20 23 26 24 20 55 44 95
internal_value=4.25251e-12 -0.024874 -0.0795614 0.0525846 -0.123176 -0.0771206 -0.155351 -0.111125 -0.0344659 0.0188276 0.234286 0.263603 -0.139022 0.27588 -0.0146797 0.20344 0.261385 0.0454024 -0.188993
internal_weight=991 958 796 193 603 248 355 119 129 156 162 122 239 102 69 40 76 87 116
internal_count=991 958 796 193 603 248 355 119 129 156 162 122 239 102 69 40 76 87 116
cat_boundaries=0 1 2
cat_threshold=2 4
is_linear=0
shrinkage=0.05


Tree=34
num_leaves=19
num_cat=1
split_feature=2 0 5 6 1 1 2 2 6 5 6 1 1 5 5 6 2 1
split_gain=6461.75 4977.6 1902.86 1140.46 1508.75 507.56 276.079 146.897 143.563 108.87 90.2607 40.9329 28.695 27.3125 22.4488 10.4987 10.4512 6.96868
threshold=38.500000000000007 0 17.500000000000004 4.5400000000000009 146.00000000000003 69.500000000000014 27.500000000000004 8.5000000000000018 5.9150000000000009 11.500000000000002 5.6850000000000014 45.500000000000007 98.500000000000014 5.5000000000000009 12.500000000000002 4.7750000000000012 5.5000000000000009 116.50000000000001
decision_type=2 1 2 2 2 2 2 2 2 2 2 2 2 2 2 2 2 2
left_child=1 11 5 6 -5 7 17 13 9 -7 -9 16 14 -3 15 -13 -1 -4
right_child=-2 2 3 4 -6 8 -8 10 -10 -11 -12 12 -14 -15 -16 -17 -18 -19
leaf_value=0.16771034836769105 0.79364575719833375 -0.18598574161677078 0.01396847264841199 0.034563986485203112 0.56049539387598635 -0.14501801588705607 -0.16836655424988789 -0.11904962084433235 0.052426582202315331 -0.048597324935995126 -0.0065020704269409179 0.27192187044355604 0.19668865751475095 -0.15187160130058017 0.29854836622873943 0.23264494201411373 0.21882589191198348 0.050211270619183783
leaf_weight=20 25 101 21 30 25 35 23 163 30 179 20 27 20 140 30 46 20 36
leaf_count=20 25 101 21 30 25 35 23 163 30 179 20 27 20 140 30 46 20 36
internal_value=1.25014e-10 -0.0205395 -0.0719627 0.0983542 0.273624 -0.10746 -0.0221436 -0.140523 -0.0500072 -0.0643671 -0.106749 0.223494 0.251494 -0.166168 0.262136 0.247172 0.193268 0.0368587
internal_weight=991 966 803 135 55 668 80 424 244 214 183 163 123 241 103 73 40 57
internal_count=991 966 803 135 55 668 80 424 244 214 183 163 123 241 103 73 40 57
cat_boundaries=0 1
cat_threshold=2
is_linear=0
shrinkage=0.05


Tree=35
num_leaves=18
num_cat=2
split_feature=1 0 1 6 2 1 1 0 1 4 5 1 6 1 1 6 6
split_gain=5900.78 4550.36 1464.69 374.979 251.199 203.264 301.877 112.102 68.177 51.5723 38.5714 35.6524 34.1185 25.5552 28.4619 14.0889 5.01867
threshold=196.50000000000003 0 91.500000000000014 5.7150000000000007 8.5000000000000018 150.50000000000003 135.50000000000003 1 71.500000000000014 1.5000000000000002 5.5000000000000009 31.500000000000004 5.9150000000000009 96.500000000000014 72.500000000000014 4.7750000000000012 3.7650000000000001
decision_type=2 1 2 2 2 2 2 1 2 2 2 2 2 2 2 2 2
left_child=1 11 4 5 10 6 -4 8 -6 -9 16 -1 -12 14 15 -13 -3
right_child=-2 2 3 -5 7 -7 -8 9 -10 -11 12 13 -14 -15 -16 -17 -18
leaf_value=0.16193718761205675 0.65737593002391592 -0.19911654829978942 0.0028683905030733774 0.19647310350555927 -0.077445013654009215 -0.13540746839273543 0.20210421383380892 -0.11188578879030851 -0.014773275657582467 -0.18562633494107889 -0.15033954379131209 0.24935974949284603 -0.093403432326657432 0.1808531948248856 0.27990490300314769 0.20879223894099802 -0.17114816155330637
leaf_weight=20 33 20 140 32 107 21 22 130 73 29 106 38 35 20 35 49 81
leaf_count=20 33 20 140 32 107 21 22 130 73 29 106 38 35 20 35 49 81
internal_value=-6.87144e-10 -0.0226445 -0.0720253 0.0385649 -0.114189 0.0109525 0.0299251 -0.0864112 -0.0492898 -0.117919 -0.153101 0.211389 -0.136206 0.233241 0.241829 0.226511 -0.176686
internal_weight=991 958 796 215 581 183 162 339 180 159 242 162 141 142 122 87 101
internal_count=991 958 796 215 581 183 162 339 180 159 242 162 141 142 122 87 101
cat_boundaries=0 1 2
cat_threshold=2 4
is_linear=0
shrinkage=0.05


Tree=36
num_leaves=19
num_cat=2
split_feature=2 0 5 6 1 0 2 6 1 2 1 2 1 2 2 6 2 1
split_gain=5404.95 4060.14 1571.2 1016.64 1328.26 419.024 515.654 307.897 270.796 118.175 86.4429 50.6379 34.2856 25.7182 26.226 8.89988 8.47818 4.90627
threshold=38.500000000000007 0 17.500000000000004 4.5400000000000009 146.00000000000003 1 11.500000000000002 5.7750000000000012 137.50000000000003 4.5000000000000009 78.500000000000014 13.500000000000002 45.500000000000007 16.500000000000004 13.500000000000002 4.5650000000000004 5.5000000000000009 116.50000000000001
decision_type=2 1 2 2 2 1 2 2 2 2 2 2 2 2 2 2 2 2
left_child=1 12 5 8 -5 6 9 10 17 -3 -7 -8 16 14 15 -14 -1 -4
right_child=-2 2 3 4 -6 7 11 -9 -10 -11 -12 -13 13 -15 -16 -17 -18 -19
leaf_value=0.15075942039489748 0.72585138416290285 -0.18331631337851287 0.013126629200719653 0.030718780507644018 0.52419100344181069 -0.18952064699339635 -0.045913812481978941 -0.028446932137012482 -0.17359125993468547 -0.099221858593422599 -0.28724525591422773 0.0071288614127662606 0.19378436088562012 0.17518270768225194 0.28056094738153309 0.23255072236061097 0.19679792702198029 0.043385246245039477
leaf_weight=20 25 50 21 30 25 103 67 28 22 254 29 137 20 20 26 57 20 37
leaf_count=20 25 50 21 30 25 103 67 28 22 254 29 137 20 20 26 57 20 37
internal_value=5.05719e-10 -0.018785 -0.0652236 0.0895425 0.255024 -0.0974775 -0.070401 -0.168513 -0.0242262 -0.113053 -0.21099 -0.010292 0.201621 0.227068 0.237142 0.222482 0.173779 0.0324295
internal_weight=991 966 803 135 55 668 508 160 80 304 132 204 163 123 103 77 40 58
internal_count=991 966 803 135 55 668 508 160 80 304 132 204 163 123 103 77 40 58
cat_boundaries=0 1 2
cat_threshold=2 12
is_linear=0
shrinkage=0.05


Tree=37
num_leaves=19
num_cat=2
split_feature=1 0 1 1 1 2 0 1 13 1 5 1 6 1 1 4 2 6
split_gain=4890.29 3710.7 1179.21 334.098 1691.38 215.918 89.8273 55.8168 46.2463 46.0844 31.3162 29.7417 28.1963 26.6968 17.9346 11.2325 7.65156 4.31874
threshold=196.50000000000003 0 91.500000000000014 150.50000000000003 137.50000000000003 8.5000000000000018 1 74.500000000000014 1.0000000180025095e-35 113.50000000000001 5.5000000000000009 45.500000000000007 5.9150000000000009 96.500000000000014 77.500000000000014 1.5000000000000002 5.5000000000000009 3.7650000000000001
decision_type=2 1 2 2 2 2 1 2 2 2 2 2 2 2 2 2 2 2
left_child=1 11 5 4 9 10 7 -7 -8 -4 17 16 -12 14 15 -13 -1 -3
right_child=-2 2 3 -5 -6 6 8 -9 -10 -11 12 13 -14 -15 -16 -17 -18 -19
leaf_value=0.14322144955396651 0.59844786434462571 -0.18117876887321471 -0.018797683631515152 -0.13781045615673065 0.4915606677532196 -0.067201722695909696 -0.091411374336108575 -0.0090356727781909282 -0.1472302387831575 0.033398324146843225 -0.13674482507806904 0.19186342699187142 -0.084985450240118166 0.16195111162960529 0.26007223040969285 0.23064937204122546 0.18695803299546243 -0.15523387883548384
leaf_weight=20 33 20 91 25 20 116 100 64 59 79 106 35 35 20 27 40 20 81
leaf_count=20 33 20 91 25 20 116 100 64 59 79 106 35 35 20 27 40 20 81
internal_value=6.16038e-10 -0.0206146 -0.0652041 0.0340178 0.0566268 -0.103044 -0.0772903 -0.044072 -0.105489 0.00545811 -0.13912 0.190731 -0.123897 0.214772 0.225129 0.212549 0.16509 -0.160371
internal_weight=991 958 796 215 190 581 339 180 159 170 242 162 141 122 102 75 40 101
internal_count=991 958 796 215 190 581 339 180 159 170 242 162 141 122 102 75 40 101
cat_boundaries=0 1 2
cat_threshold=2 4
is_linear=0
shrinkage=0.05


Tree=38
num_leaves=19
num_cat=2
split_feature=2 0 5 6 1 0 2 6 1 2 1 2 6 6 1 1 1 6
split_gain=4523.8 3311.95 1265.37 902.832 1163.78 369.986 434.711 276.426 275.366 102.65 81.0988 64.1953 28.8094 41.0064 19.6088 9.41207 3.98039 2.21575
threshold=38.500000000000007 0 17.500000000000004 4.5400000000000009 146.00000000000003 1 9.5000000000000018 5.7750000000000012 137.50000000000003 12.500000000000002 78.500000000000014 4.5000000000000009 4.4150000000000009 4.7750000000000012 58.500000000000007 48.500000000000007 116.50000000000001 5.2700000000000005
decision_type=2 1 2 2 2 1 2 2 2 2 2 2 2 2 2 2 2 2
left_child=1 12 5 8 -5 6 11 10 16 -8 -7 -3 15 -14 -15 -1 -4 -16
right_child=-2 2 3 4 -6 7 9 -9 -10 -11 -12 -13 13 14 17 -17 -18 -19
leaf_value=0.13919104279383371 0.66405395412445067 -0.16629173756390811 0.012291696379404693 0.025744073713819191 0.48765320977568627 -0.17366698748857073 -0.058375214034070567 -0.021499333903193474 -0.17807377929037269 0.0024018589481993608 -0.26832264127402472 -0.10196876425667521 0.25889594678221078 0.15918885269202293 0.22056058297554651 0.18112395419739188 0.039546068098295382 0.19884306114652883
leaf_weight=23 25 50 21 30 25 103 120 28 22 165 29 173 29 32 24 32 37 23
leaf_count=23 25 50 21 30 25 103 120 28 22 165 29 173 29 32 24 32 37 23
internal_value=-7.49217e-10 -0.0171857 -0.0591237 0.0797582 0.235703 -0.0880763 -0.0628647 -0.154536 -0.0274537 -0.0231885 -0.194463 -0.116391 0.181886 0.208045 0.189378 0.163588 0.0296781 0.209933
internal_weight=991 966 803 135 55 668 508 160 80 285 132 223 163 108 79 55 58 47
internal_count=991 966 803 135 55 668 508 160 80 285 132 223 163 108 79 55 58 47
cat_boundaries=0 1 2
cat_threshold=2 12
is_linear=0
shrinkage=0.05


Tree=39
num_leaves=20
num_cat=2
split_feature=2 0 5 6 1 0 2 6 1 2 1 2 4 1 6 6 1 2 2
split_gain=4082.73 2989.04 1142 814.806 1050.31 333.913 392.327 249.475 248.518 93.8084 73.1917 57.9363 27.3759 38.2614 31.5407 27.5976 3.5923 3.03438 1.25996
threshold=38.500000000000007 0 17.500000000000004 4.5400000000000009 146.00000000000003 1 9.5000000000000018 5.7750000000000012 137.50000000000003 13.500000000000002 78.500000000000014 4.5000000000000009 1.5000000000000002 54.500000000000007 4.370000000000001 4.785000000000001 116.50000000000001 11.500000000000002 11.500000000000002
decision_type=2 1 2 2 2 1 2 2 2 2 2 2 2 2 2 2 2 2 2
left_child=1 12 5 8 -5 6 11 10 16 -8 -7 -3 13 -1 -14 -16 -4 -17 -15
right_child=-2 2 3 4 -6 7 9 -9 -10 -11 -12 -13 14 18 15 17 -18 -19 -20
leaf_value=0.10031899489462376 0.63085126829147342 -0.15797715125977996 0.011677111161961443 0.024456870034337046 0.46327056729793548 -0.16498363677737782 -0.049628354257878822 -0.020424367633781262 -0.16917007755149494 0.0077862292829547061 -0.25490651027909639 -0.096870325998849954 0.15933752678560489 0.17568348674547107 0.26068621206283571 0.20700931549072266 0.037568764559723238 0.18037997603416445 0.19300374260970526
leaf_weight=20 25 50 21 30 25 103 148 28 22 137 29 173 33 21 25 23 37 20 21
leaf_count=20 25 50 21 30 25 103 148 28 22 137 29 173 33 21 25 23 37 20 21
internal_value=4.29323e-10 -0.0163264 -0.0561675 0.0757703 0.223918 -0.0836724 -0.0597214 -0.146809 -0.026081 -0.0220291 -0.184739 -0.110571 0.172791 0.157239 0.199447 0.218911 0.0281942 0.194624 0.184344
internal_weight=991 966 803 135 55 668 508 160 80 285 132 223 163 62 101 68 58 43 42
internal_count=991 966 803 135 55 668 508 160 80 285 132 223 163 62 101 68 58 43 42
cat_boundaries=0 1 2
cat_threshold=2 12
is_linear=0
shrinkage=0.05


Tree=40
num_leaves=17
num_cat=2
split_feature=2 0 2 1 1 5 6 6 1 0 5 6 1 2 2 6
split_gain=3738.24 2772.14 802.049 529.138 1555.05 142.514 82.0202 126.821 75.4968 51.8231 23.8245 20.5179 13.4035 17.6855 7.97371 7.06895
threshold=33.500000000000007 0 13.500000000000002 150.50000000000003 137.50000000000003 6.5000000000000009 5.7750000000000012 6.080000000000001 100.50000000000001 1 6.5000000000000009 3.7650000000000001 94.500000000000014 13.500000000000002 8.5000000000000018 4.3150000000000004
decision_type=2 1 2 2 2 2 2 2 2 1 2 2 2 2 2 2
left_child=1 10 5 4 8 11 9 -8 -4 -7 -1 -3 13 14 -12 -13
right_child=-2 2 3 -5 -6 6 7 -9 -10 -11 12 15 -14 -15 -16 -17
leaf_value=0.13639774546027184 0.49310582811767995 -0.17971113100647929 -0.036045641098092544 -0.23342857559521996 0.45126162707805639 -0.054877888081489204 0.057156507212382107 -0.086938482986108678 0.019398517455192634 -0.11505784915227975 0.20370924580097199 -0.10278748444148474 0.14796876145357438 0.22965249289637027 0.1699295876355007 -0.13456561560786906
leaf_weight=34 37 24 118 21 20 148 26 37 128 144 25 21 22 23 58 105
leaf_count=34 37 24 118 21 20 148 26 37 128 144 25 21 22 23 58 105
internal_value=-3.878e-10 -0.0191246 -0.057816 0.00819811 0.0272739 -0.0964777 -0.079212 -0.0274707 -0.00719665 -0.0903754 0.163509 -0.13734 0.183484 0.190855 0.180104 -0.129269
internal_weight=991 954 792 287 266 505 355 63 246 292 162 150 128 106 83 126
internal_count=991 954 792 287 266 505 355 63 246 292 162 150 128 106 83 126
cat_boundaries=0 1 2
cat_threshold=2 4
is_linear=0
shrinkage=0.05


Tree=41
num_leaves=18
num_cat=1
split_feature=1 0 2 6 1 2 5 6 6 1 6 6 6 1 1 6 6
split_gain=3393.22 2474.23 776.527 393.425 183.788 182.257 127.506 74.7459 114.456 29.0645 23.7403 31.333 18.5174 16.9941 7.37855 6.37972 4.6465
threshold=196.50000000000003 0 13.500000000000002 5.7150000000000007 150.50000000000003 23.500000000000004 6.5000000000000009 5.7750000000000012 6.080000000000001 56.500000000000007 4.4150000000000009 4.7750000000000012 3.7650000000000001 54.500000000000007 48.500000000000007 4.3150000000000004 5.2700000000000005
decision_type=2 1 2 2 2 2 2 2 2 2 2 2 2 2 2 2 2
left_child=1 10 6 4 5 -4 12 9 -9 -8 14 -12 -3 -13 -1 -14 -15
right_child=-2 2 3 -5 -6 -7 7 8 -10 -11 11 13 15 16 -16 -17 -18
leaf_value=0.11662289691562562 0.49841382142269253 -0.17072557235757513 -0.020019909342801248 0.18890017651553667 -0.15013624216829027 0.082238032799540908 -0.10412804531666825 0.054298682625477136 -0.08259156061386741 -0.072308125755834313 0.22409243328230724 0.12743053726541501 -0.097648111695335035 0.1926550070444743 0.15375058565696237 -0.12783733451650256 0.16358444988727572
leaf_weight=23 33 24 185 28 21 57 127 26 37 165 28 24 21 27 32 105 28
leaf_count=23 33 24 185 28 21 57 127 26 37 165 28 24 21 27 32 105 28
internal_value=-8.57396e-05 -0.0172574 -0.05366 0.0107224 -0.00824706 0.00406564 -0.0918221 -0.0754908 -0.0260972 -0.0861476 0.155333 0.178645 -0.130473 0.162536 0.138224 -0.122806 0.177855
internal_weight=991 958 796 291 263 242 505 355 63 292 162 107 150 79 55 126 55
internal_count=991 958 796 291 263 242 505 355 63 292 162 107 150 79 55 126 55
cat_boundaries=0 1
cat_threshold=2
is_linear=0
shrinkage=0.05


Tree=42
num_leaves=21
num_cat=2
split_feature=0 1 1 0 1 1 1 1 6 6 6 1 1 4 1 6 6 1 1 2
split_gain=3210.05 8415.87 1511.03 1355.9 593.267 336.046 1122.87 150.098 71.5733 178.506 73.2639 35.7653 24.8871 23.3012 31.7021 25.1719 21.7584 20.787 19.3465 1.0382
threshold=0 196.50000000000003 106.50000000000001 1 86.500000000000014 150.50000000000003 137.50000000000003 35.500000000000007 6.1150000000000011 5.7650000000000006 4.7750000000000012 70.500000000000014 55.500000000000007 1.5000000000000002 54.500000000000007 4.370000000000001 4.7200000000000015 23.500000000000004 65.500000000000014 11.500000000000002
decision_type=1 2 2 1 2 2 2 2 2 2 2 2 2 2 2 2 2 2 2 2
left_child=1 3 8 13 7 6 -6 17 9 10 11 -2 -9 14 -1 -15 -17 -5 -12 -16
right_child=2 -3 -4 4 5 -7 -8 12 -10 -11 18 -13 -14 15 19 16 -18 -19 -20 -21
leaf_value=0.080781206898391245 -0.094695230871438996 0.94471251322672922 -0.53221149664710876 -0.17217537890309875 0.027341203482708701 -0.12863383864363034 0.42404232501983641 -0.069061904835204288 -0.1721865417830872 0.049522673785686498 -0.14906322431482683 -0.033364850576176788 -0.033059054993403454 0.13586247141162555 0.1494039881797064 0.23138354193596614 0.16996030587217081 -0.11132304453187519 -0.10937544191783329 0.16512630326407296
leaf_weight=20 85 26 22 23 165 24 20 72 33 20 73 33 144 33 21 21 46 36 53 21
leaf_count=20 85 26 22 23 165 24 20 72 33 20 73 33 144 33 21 21 46 36 53 21
internal_value=-8.14527e-05 0.061801 -0.128356 0.0272225 -0.0157808 0.047392 0.0702278 -0.0643659 -0.102762 -0.0940841 -0.105855 -0.0775435 -0.04506 0.147567 0.132593 0.171607 0.189212 -0.135045 -0.132369 0.157265
internal_weight=991 672 319 646 484 209 185 275 297 264 244 118 216 162 62 100 67 59 126 42
internal_count=991 672 319 646 484 209 185 275 297 264 244 118 216 162 62 100 67 59 126 42
cat_boundaries=0 1 2
cat_threshold=6 2
is_linear=0
shrinkage=0.05


Tree=43
num_leaves=21
num_cat=2
split_feature=0 1 1 0 1 1 1 1 6 6 6 1 1 4 1 6 6 1 1 2
split_gain=2897.07 7595.33 1363.7 1223.7 535.916 297.947 1021.93 132.15 64.5949 161.102 66.1207 32.2782 21.0906 21.0293 28.6111 22.7176 19.7937 18.7603 17.4602 0.936979
threshold=0 196.50000000000003 106.50000000000001 1 85.500000000000014 150.50000000000003 137.50000000000003 35.500000000000007 6.1150000000000011 5.7650000000000006 4.7750000000000012 70.500000000000014 55.500000000000007 1.5000000000000002 54.500000000000007 4.370000000000001 4.785000000000001 23.500000000000004 65.500000000000014 11.500000000000002
decision_type=1 2 2 1 2 2 2 2 2 2 2 2 2 2 2 2 2 2 2 2
left_child=1 3 8 13 7 6 -6 17 9 10 11 -2 -9 14 -1 -15 -17 -5 -12 -16
right_child=2 -3 -4 4 5 -7 -8 12 -10 -11 18 -13 -14 15 19 16 -18 -19 -20 -21
leaf_value=0.076742147020995632 -0.089960470252177294 0.89747690466734087 -0.50560091767798776 -0.16356661164242289 0.024990826904335444 -0.12220214518407982 0.40284021584317087 -0.065608809909058943 -0.16357721284483417 0.047046537697315219 -0.14161006341343874 -0.031696605750105598 -0.032267522528054024 0.12906934609918883 0.14193378686904909 0.21612854935228826 0.15944841940735663 -0.10575689110491011 -0.1039066695660915 0.15686998906589689
leaf_weight=20 85 26 22 23 170 24 20 72 33 20 73 33 139 33 21 24 43 36 53 21
leaf_count=20 85 26 22 23 170 24 20 72 33 20 73 33 139 33 21 24 43 36 53 21
internal_value=-7.73792e-05 0.058711 -0.121938 0.0258614 -0.0149917 0.0437962 0.0647644 -0.0621419 -0.097624 -0.0893799 -0.100562 -0.0736663 -0.0436446 0.140188 0.125963 0.163027 0.179752 -0.128293 -0.125751 0.149402
internal_weight=991 672 319 646 484 214 190 270 297 264 244 118 211 162 62 100 67 59 126 42
internal_count=991 672 319 646 484 214 190 270 297 264 244 118 211 162 62 100 67 59 126 42
cat_boundaries=0 1 2
cat_threshold=6 2
is_linear=0
shrinkage=0.05


Tree=44
num_leaves=20
num_cat=2
split_feature=2 0 1 6 1 1 0 2 6 1 2 2 2 5 4 1 6 4 2
split_gain=2654.79 1791.22 662.659 466.217 819.277 371.654 215.855 222.173 203.355 54.7912 54.7484 19.9714 19.6964 34.3644 18.3244 20.663 16.5121 10.2338 6.17473
threshold=38.500000000000007 0 107.50000000000001 4.370000000000001 146.00000000000003 134.50000000000003 1 11.500000000000002 5.7750000000000012 78.500000000000014 4.5000000000000009 13.500000000000002 16.500000000000004 12.500000000000002 1.5000000000000002 54.500000000000007 4.370000000000001 1.5000000000000002 24.500000000000004
decision_type=2 1 2 2 2 2 1 2 2 2 2 2 2 2 2 2 2 2 2
left_child=1 12 6 5 17 18 7 10 9 -8 -3 -9 13 14 15 -1 -16 -5 -4
right_child=-2 2 3 4 -6 -7 8 11 -10 -11 -12 -13 -14 -15 16 -17 -18 -19 -20
leaf_value=0.072905040485784417 0.50863273668289188 -0.12234280133247376 0.0016789173148572445 0.031066680848598482 0.33274578799804055 -0.23665818676352501 -0.13531234316455507 -0.026444508937526159 -0.0033808736928871703 -0.21533195442623565 -0.065085405562893883 0.0080613440145616954 0.094873494431376465 0.19644591130059341 0.11861314239601295 0.14050457615118761 0.17017089575529099 -0.01120445639604614 0.038952432066202164
leaf_weight=20 25 50 20 45 30 20 103 66 28 27 253 115 20 29 24 26 44 21 25
leaf_count=20 25 50 20 45 30 20 103 66 28 27 253 115 20 29 24 26 44 21 25
internal_value=-7.35104e-05 -0.0132388 -0.0440695 0.0460826 0.116095 -0.0573196 -0.0673642 -0.0473725 -0.11813 -0.151932 -0.0745338 -0.0045209 0.133178 0.147849 0.135486 0.111113 0.151974 0.0176168 0.0223864
internal_weight=991 966 803 161 96 65 642 484 158 130 303 181 163 143 114 46 68 66 45
internal_count=991 966 803 161 96 65 642 484 158 130 303 181 163 143 114 46 68 66 45
cat_boundaries=0 1 2
cat_threshold=2 12
is_linear=0
shrinkage=0.05


Tree=45
num_leaves=20
num_cat=2
split_feature=0 1 1 0 1 1 1 1 6 6 6 6 1 6 6 6 1 1 5
split_gain=2454.93 6572.66 1315.49 993.824 441.411 302.204 886.395 118.077 63.5306 139.234 60.5299 45.4937 37.5829 23.3636 17.8084 23.4654 15.9771 12.0789 5.68789
threshold=0 196.50000000000003 106.50000000000001 1 87.500000000000014 150.50000000000003 137.50000000000003 35.500000000000007 6.1150000000000011 5.7650000000000006 4.4900000000000011 3.9550000000000005 65.500000000000014 4.4450000000000012 4.4150000000000009 4.7750000000000012 23.500000000000004 58.500000000000007 9.5000000000000018
decision_type=1 2 2 1 2 2 2 2 2 2 2 2 2 2 2 2 2 2 2
left_child=1 3 8 14 7 6 -6 16 9 10 11 -2 -12 -9 18 -16 -5 -17 -1
right_child=2 -3 -4 4 5 -7 -8 13 -10 -11 12 -13 -14 -15 15 17 -18 -19 -20
leaf_value=0.095405942840235569 -0.096896538620485986 0.83429632324438829 -0.4888310061259703 -0.14976902966913971 0.025315979730221445 -0.12433855570852757 0.37837295599281789 -0.061728037904570071 -0.15353846604173835 0.046874564886093144 -0.12791050327451606 -0.019500777194666308 -0.080014956380344116 -0.02664562932669038 0.18553366517382008 0.10856926274427679 -0.096419535742865672 0.1483958238299857 0.12756965303862539
leaf_weight=28 34 26 22 23 160 24 20 69 33 20 95 43 72 152 28 32 36 47 27
leaf_count=28 34 26 22 23 160 24 20 69 33 20 95 43 72 152 28 32 36 47 27
internal_value=-6.98357e-05 0.0540468 -0.112247 0.0234802 -0.0133427 0.042323 0.0645445 -0.0543756 -0.0881309 -0.0799549 -0.0903508 -0.0536755 -0.107261 -0.037599 0.126509 0.146203 -0.117217 0.132264 0.111195
internal_weight=991 672 319 646 484 204 180 280 297 264 244 77 167 221 162 107 59 79 55
internal_count=991 672 319 646 484 204 180 280 297 264 244 77 167 221 162 107 59 79 55
cat_boundaries=0 1 2
cat_threshold=6 2
is_linear=0
shrinkage=0.05


Tree=46
num_leaves=21
num_cat=2
split_feature=0 1 5 0 1 1 1 1 6 6 6 6 1 6 4 1 6 6 1 2
split_gain=2215.58 5931.83 1212.52 896.926 398.702 263.669 813.813 101.65 59.953 125.855 47.9307 47.0428 37.3809 19.3734 16.8405 22.2644 17.2211 17.4621 14.4194 0.794302
threshold=0 196.50000000000003 15.500000000000002 1 85.500000000000014 150.50000000000003 137.50000000000003 35.500000000000007 6.1150000000000011 5.7650000000000006 4.4900000000000011 3.9550000000000005 65.500000000000014 4.3400000000000007 1.5000000000000002 54.500000000000007 4.370000000000001 4.7200000000000015 23.500000000000004 11.500000000000002
decision_type=1 2 2 1 2 2 2 2 2 2 2 2 2 2 2 2 2 2 2 2
left_child=1 3 8 14 7 6 -6 18 9 10 11 -2 -12 -9 15 -1 -16 -18 -5 -17
right_child=2 -3 -4 4 5 -7 -8 13 -10 -11 12 -13 -14 -15 16 19 17 -19 -20 -21
leaf_value=0.063708452694118026 -0.097891348284302349 0.79258150252012116 -0.47718973762932282 -0.1422805817230888 0.022268246316679702 -0.1181216299533844 0.35945430178195242 -0.061151039265096185 -0.14659244891475229 0.044530848264694216 -0.12151497941660255 -0.0185257381304752 -0.073934764023359911 -0.027565644498118849 0.11073046606598479 0.12092859482481366 0.19263663089701111 0.13761078718563785 -0.091598559419314066 0.13468066425550551
leaf_weight=20 33 26 21 23 170 24 20 60 34 20 95 43 73 151 33 21 21 46 36 21
leaf_count=20 33 26 21 23 170 24 20 60 34 20 95 43 73 151 33 21 21 46 36 21
internal_value=-6.63439e-05 0.0513445 -0.106634 0.0223062 -0.0126755 0.0380363 0.0577615 -0.0533388 -0.0840997 -0.0760514 -0.0859352 -0.0529871 -0.10084 -0.037116 0.120183 0.107128 0.140296 0.154858 -0.111356 0.127805
internal_weight=991 672 319 646 484 214 190 270 298 264 244 76 168 211 162 62 100 67 59 42
internal_count=991 672 319 646 484 214 190 270 298 264 244 76 168 211 162 62 100 67 59 42
cat_boundaries=0 1 2
cat_threshold=6 2
is_linear=0
shrinkage=0.05


Tree=47
num_leaves=19
num_cat=2
split_feature=2 0 1 6 1 1 0 6 2 1 2 6 2 2 2 6 13 4
split_gain=2024.67 1312.63 480.83 446.866 780.612 434.764 180.494 180.985 175.64 49.8774 43.7927 27.5499 21.7608 29.7473 13.163 4.43962 4.33731 4.31982
threshold=38.500000000000007 0 107.50000000000001 4.5400000000000009 146.00000000000003 137.50000000000003 1 5.7750000000000012 9.5000000000000018 78.500000000000014 12.500000000000002 3.8750000000000004 16.500000000000004 13.500000000000002 5.5000000000000009 4.955000000000001 1.0000000180025095e-35 1.5000000000000002
decision_type=2 1 2 2 2 2 1 2 2 2 2 2 2 2 2 2 2 2
left_child=1 12 6 5 17 16 8 9 11 -8 -10 -3 13 14 -1 -16 -4 -5
right_child=-2 2 3 4 -6 -7 7 -9 10 -11 -12 -13 -14 -15 15 -17 -18 -19
leaf_value=0.083835175775069132 0.44418801712989808 -0.11257952934986837 0.044299365774813027 0.025496186880128724 0.3473808921300448 -0.23423696895214646 -0.11948241516224389 0.0048029983682291852 -0.035121977639173262 -0.19582959049277837 0.0059999531082494161 -0.065337906225073725 0.071916478723287589 0.1759750776565992 0.13528200341845115 0.11332998077074688 0.016119965941955649 -0.0036334406211972238
leaf_weight=24 25 37 22 35 26 22 103 28 119 27 142 186 20 26 51 42 36 20
leaf_count=24 25 37 22 35 26 22 103 28 119 27 142 186 20 26 51 42 36 20
internal_value=-6.30261e-05 -0.0115602 -0.0379485 0.0388403 0.121625 -0.0449789 -0.0577966 -0.103926 -0.0397689 -0.135339 -0.0127491 -0.0731762 0.113786 0.127599 0.116849 0.125368 0.0268087 0.0149036
internal_weight=991 966 803 161 81 80 642 158 484 130 261 223 163 143 117 93 58 55
internal_count=991 966 803 161 81 80 642 158 484 130 261 223 163 143 117 93 58 55
cat_boundaries=0 1 2
cat_threshold=2 12
is_linear=0
shrinkage=0.05


Tree=48
num_leaves=21
num_cat=2
split_feature=0 1 1 0 1 1 1 1 6 6 6 1 6 6 6 6 4 1 1 6
split_gain=1880.31 5178.23 1166.79 730.195 326.363 263.916 707.018 90.4335 56.9654 107.195 52.4014 30.2202 20.4533 15.674 30.9425 13.8102 13.3547 12.849 9.68723 2.91554
threshold=0 196.50000000000003 106.50000000000001 1 87.500000000000014 150.50000000000003 137.50000000000003 35.500000000000007 6.1150000000000011 5.7650000000000006 4.7750000000000012 70.500000000000014 4.4450000000000012 4.5400000000000009 4.7750000000000012 5.1300000000000008 1.5000000000000002 23.500000000000004 54.500000000000007 3.9550000000000005
decision_type=1 2 2 1 2 2 2 2 2 2 2 2 2 2 2 2 2 2 2 2
left_child=1 3 8 13 7 6 -6 17 9 10 11 -2 -9 16 -15 -12 -1 -5 -16 -18
right_child=2 -3 -4 4 5 -7 -8 12 -10 -11 15 -13 -14 14 18 -17 19 -19 -20 -21
leaf_value=0.064245737276294013 -0.06849002062836114 0.73984541125022452 -0.45266245066754474 -0.13087266502173053 0.022193302554660479 -0.11928430187205474 0.33750971244648098 -0.05457950923321904 -0.13722373933503124 0.043738938868045807 -0.11512691164819094 -0.012114129238056416 -0.021754748667100154 0.18313088608905673 0.087005228813116758 -0.082003555254491628 0.098872873261570932 -0.08302998873922561 0.12507641379806131 0.12554740252948943
leaf_weight=22 85 26 22 23 160 24 20 69 33 20 65 33 152 20 24 61 20 36 55 21
leaf_count=22 85 26 22 23 160 24 20 69 33 20 65 33 152 20 24 61 20 36 55 21
internal_value=-5.98752e-05 0.0473017 -0.0982342 0.0201606 -0.011404 0.0364623 0.0572285 -0.0466852 -0.0752878 -0.0675459 -0.0766676 -0.0527239 -0.0320032 0.108473 0.127575 -0.099091 0.0956724 -0.101681 0.11351 0.112535
internal_weight=991 672 319 646 484 204 180 280 297 264 244 118 221 162 99 126 63 59 79 41
internal_count=991 672 319 646 484 204 180 280 297 264 244 118 221 162 99 126 63 59 79 41
cat_boundaries=0 1 2
cat_threshold=6 2
is_linear=0
shrinkage=0.05


Tree=49
num_leaves=18
num_cat=2
split_feature=0 1 5 0 1 1 6 6 1 6 5 1 1 1 1 1 2
split_gain=1696.98 4673.35 1076.4 659.001 301.805 182.088 53.0704 96.9736 41.9492 41.0452 40.1866 33.6579 31.4512 15.9091 22.7516 11.3989 3.48508
threshold=0 196.50000000000003 15.500000000000002 1 149.50000000000003 55.500000000000007 6.1150000000000011 5.7650000000000006 87.500000000000014 4.4900000000000011 8.5000000000000018 65.500000000000014 23.500000000000004 96.500000000000014 45.500000000000007 77.500000000000014 5.5000000000000009
decision_type=1 2 2 1 2 2 2 2 2 2 2 2 2 2 2 2 2
left_child=1 3 6 13 5 12 7 9 -7 10 -2 -11 -5 14 16 -16 -1
right_child=2 -3 -4 4 -6 8 -8 -9 -10 11 -12 -13 -14 -15 15 -17 -18
leaf_value=0.068572228811681277 -0.081831733446036073 0.70285315866080622 -0.44223533466103532 -0.12432902999546216 0.13733241166919471 -0.020709803881554946 -0.13066271223566112 0.041551992297172546 0.015533414993131923 -0.10638113483394447 -0.0088874516690649642 -0.061232486867412853 -0.059934605392454959 0.067659345231950288 0.11779480645557246 0.15568174631507309 0.098089532204903671
leaf_weight=20 35 26 21 23 32 149 34 20 172 95 41 73 108 20 75 27 20
leaf_count=20 35 26 21 23 32 149 34 20 172 95 41 73 108 20 75 27 20
internal_value=-5.68813e-05 0.0449366 -0.0933225 0.0191526 -0.0108338 -0.0215631 -0.0718663 -0.0642941 -0.00128976 -0.07297 -0.0424802 -0.086763 -0.0712405 0.103049 0.115291 0.127824 0.0833309
internal_weight=991 672 319 646 484 452 298 264 321 244 76 168 131 162 142 102 40
internal_count=991 672 319 646 484 452 298 264 321 244 76 168 131 162 142 102 40
cat_boundaries=0 1 2
cat_threshold=6 2
is_linear=0
shrinkage=0.05


Tree=50
num_leaves=20
num_cat=2
split_feature=2 0 1 6 1 1 0 6 2 1 1 2 2 4 1 6 1 13 4
split_gain=1532.46 960.377 349.39 421.6 635.69 484.909 151.892 161.929 137.052 45.9715 36.907 21.191 25.5799 11.9685 15.6273 10.5887 3.95727 3.73189 1.63133
threshold=38.500000000000007 0 107.50000000000001 4.5400000000000009 146.00000000000003 137.50000000000003 1 5.7750000000000012 12.500000000000002 78.500000000000014 34.500000000000007 16.500000000000004 13.500000000000002 1.5000000000000002 54.500000000000007 4.370000000000001 80.500000000000014 1.0000000180025095e-35 1.5000000000000002
decision_type=2 1 2 2 2 2 1 2 2 2 2 2 2 2 2 2 2 2 2
left_child=1 11 6 5 18 17 8 9 10 -8 -3 12 13 14 -1 -15 -10 -4 -5
right_child=-2 2 3 4 -6 -7 7 -9 16 -11 -12 -13 -14 15 -16 -17 -18 -19 -20
